Address:,USB0::0x0957::0x17BC::MY60101365::0::INSTR,,Time (s),Minimum(4) (V)
Model:,MSO-X 4154A,,2022-11-15 17:44:54.467,-0.043515
Serial Number:,MY60101365,,2022-11-15 17:44:55.133,-0.025105
Firmware Version:,07.31.2020012900,,2022-11-15 17:44:55.767,-0.01841
Start Time:,2022-11-15 17:44:54.467,,2022-11-15 17:44:56.436,-0.011715
Stop Time:,2022-11-15 17:54:54.347,,2022-11-15 17:44:57.111,-0.025105
Sample Period:,0.5,,2022-11-15 17:44:57.758,-0.033473
,,,2022-11-15 17:44:58.408,-0.038494
,,,2022-11-15 17:44:59.051,-0.023431
,,,2022-11-15 17:44:59.697,-0.040167
,,,2022-11-15 17:45:00.358,-0.016736
,,,2022-11-15 17:45:01.009,-0.025105
,,,2022-11-15 17:45:01.664,-0.011715
,,,2022-11-15 17:45:02.309,-0.033473
,,,2022-11-15 17:45:02.955,-0.025105
,,,2022-11-15 17:45:03.603,-0.045188
,,,2022-11-15 17:45:04.251,-0.05523
,,,2022-11-15 17:45:04.901,-0.041841
,,,2022-11-15 17:45:05.572,-0.013389
,,,2022-11-15 17:45:06.238,-0.05523
,,,2022-11-15 17:45:06.884,-0.043515
,,,2022-11-15 17:45:07.534,-0.033473
,,,2022-11-15 17:45:08.184,-0.011715
,,,2022-11-15 17:45:08.844,-0.025105
,,,2022-11-15 17:45:09.496,-0.061925
,,,2022-11-15 17:45:10.155,-0.025105
,,,2022-11-15 17:45:10.814,-0.01841
,,,2022-11-15 17:45:11.472,-0.020084
,,,2022-11-15 17:45:12.135,-0.011715
,,,2022-11-15 17:45:12.787,-0.011715
,,,2022-11-15 17:45:13.449,-0.01841
,,,2022-11-15 17:45:14.112,-0.016736
,,,2022-11-15 17:45:14.756,-0.048536
,,,2022-11-15 17:45:15.401,-0.026778
,,,2022-11-15 17:45:16.059,-0.031799
,,,2022-11-15 17:45:16.702,-0.030126
,,,2022-11-15 17:45:17.353,-0.01841
,,,2022-11-15 17:45:18.011,-0.048536
,,,2022-11-15 17:45:18.661,-0.031799
,,,2022-11-15 17:45:19.304,-0.016736
,,,2022-11-15 17:45:19.954,-0.026778
,,,2022-11-15 17:45:20.598,-0.046862
,,,2022-11-15 17:45:21.244,-0.015063
,,,2022-11-15 17:45:21.891,-0.033473
,,,2022-11-15 17:45:22.553,-0.01841
,,,2022-11-15 17:45:23.204,-0.020084
,,,2022-11-15 17:45:23.851,-0.01841
,,,2022-11-15 17:45:24.507,-0.048536
,,,2022-11-15 17:45:25.153,-0.051883
,,,2022-11-15 17:45:25.800,-0.028452
,,,2022-11-15 17:45:26.451,-0.040167
,,,2022-11-15 17:45:27.117,-0.011715
,,,2022-11-15 17:45:27.790,-0.051883
,,,2022-11-15 17:45:28.445,-0.063598
,,,2022-11-15 17:45:29.088,-0.031799
,,,2022-11-15 17:45:29.796,-0.023431
,,,2022-11-15 17:45:30.463,-0.033473
,,,2022-11-15 17:45:31.116,-0.076987
,,,2022-11-15 17:45:31.775,-0.006695
,,,2022-11-15 17:45:32.430,-0.043515
,,,2022-11-15 17:45:33.081,-0.025105
,,,2022-11-15 17:45:33.736,-0.035146
,,,2022-11-15 17:45:34.386,-0.043515
,,,2022-11-15 17:45:35.063,-0.033473
,,,2022-11-15 17:45:35.705,-0.033473
,,,2022-11-15 17:45:36.348,-0.031799
,,,2022-11-15 17:45:36.984,-0.045188
,,,2022-11-15 17:45:37.633,-0.046862
,,,2022-11-15 17:45:38.295,-0.038494
,,,2022-11-15 17:45:38.955,-0.01841
,,,2022-11-15 17:45:39.615,-0.060251
,,,2022-11-15 17:45:40.273,-0.030126
,,,2022-11-15 17:45:40.922,-0.016736
,,,2022-11-15 17:45:41.578,-0.045188
,,,2022-11-15 17:45:42.241,-0.038494
,,,2022-11-15 17:45:42.886,-0.048536
,,,2022-11-15 17:45:43.545,-0.028452
,,,2022-11-15 17:45:44.192,-0.035146
,,,2022-11-15 17:45:44.852,-0.011715
,,,2022-11-15 17:45:45.511,-0.05523
,,,2022-11-15 17:45:46.163,-0.040167
,,,2022-11-15 17:45:46.825,-0.025105
,,,2022-11-15 17:45:47.477,-0.040167
,,,2022-11-15 17:45:48.145,-0.025105
,,,2022-11-15 17:45:48.799,-0.011715
,,,2022-11-15 17:45:49.446,-0.033473
,,,2022-11-15 17:45:50.100,-0.01841
,,,2022-11-15 17:45:50.758,-0.01841
,,,2022-11-15 17:45:51.415,-0.031799
,,,2022-11-15 17:45:52.074,-0.046862
,,,2022-11-15 17:45:52.735,-0.013389
,,,2022-11-15 17:45:53.400,-0.01841
,,,2022-11-15 17:45:54.057,-0.031799
,,,2022-11-15 17:45:54.715,-0.01841
,,,2022-11-15 17:45:55.372,-0.03682
,,,2022-11-15 17:45:56.005,-0.01841
,,,2022-11-15 17:45:56.673,-0.025105
,,,2022-11-15 17:45:57.339,-0.01841
,,,2022-11-15 17:45:57.994,-0.023431
,,,2022-11-15 17:45:58.655,-0.03682
,,,2022-11-15 17:45:59.324,-0.053556
,,,2022-11-15 17:45:59.977,-0.021757
,,,2022-11-15 17:46:00.631,-0.010042
,,,2022-11-15 17:46:01.281,-0.048536
,,,2022-11-15 17:46:01.939,-0.023431
,,,2022-11-15 17:46:02.590,-0.023431
,,,2022-11-15 17:46:03.238,-0.010042
,,,2022-11-15 17:46:03.892,-0.046862
,,,2022-11-15 17:46:04.549,-0.03682
,,,2022-11-15 17:46:05.203,-0.045188
,,,2022-11-15 17:46:05.869,-0.010042
,,,2022-11-15 17:46:06.534,-0.038494
,,,2022-11-15 17:46:07.202,-0.033473
,,,2022-11-15 17:46:07.873,-0.026778
,,,2022-11-15 17:46:08.538,-0.025105
,,,2022-11-15 17:46:09.200,-0.03682
,,,2022-11-15 17:46:09.867,-0.01841
,,,2022-11-15 17:46:10.518,-0.031799
,,,2022-11-15 17:46:11.187,-0.016736
,,,2022-11-15 17:46:11.841,-0.011715
,,,2022-11-15 17:46:12.493,-0.031799
,,,2022-11-15 17:46:13.153,-0.028452
,,,2022-11-15 17:46:13.811,-0.010042
,,,2022-11-15 17:46:14.467,-0.01841
,,,2022-11-15 17:46:15.128,-0.061925
,,,2022-11-15 17:46:15.783,-0.006695
,,,2022-11-15 17:46:16.446,-0.028452
,,,2022-11-15 17:46:17.105,-0.011715
,,,2022-11-15 17:46:17.732,-0.035146
,,,2022-11-15 17:46:18.387,-0.061925
,,,2022-11-15 17:46:19.048,-0.033473
,,,2022-11-15 17:46:19.714,-0.07364
,,,2022-11-15 17:46:20.375,-0.010042
,,,2022-11-15 17:46:21.033,-0.020084
,,,2022-11-15 17:46:21.698,-0.025105
,,,2022-11-15 17:46:22.356,-0.031799
,,,2022-11-15 17:46:23.015,-0.030126
,,,2022-11-15 17:46:23.687,-0.078661
,,,2022-11-15 17:46:24.338,-0.025105
,,,2022-11-15 17:46:24.994,-0.011715
,,,2022-11-15 17:46:25.669,-0.020084
,,,2022-11-15 17:46:26.322,-0.053556
,,,2022-11-15 17:46:26.984,-0.028452
,,,2022-11-15 17:46:27.637,-0.026778
,,,2022-11-15 17:46:28.296,-0.013389
,,,2022-11-15 17:46:28.960,-0.016736
,,,2022-11-15 17:46:29.621,-0.046862
,,,2022-11-15 17:46:30.290,-0.01841
,,,2022-11-15 17:46:30.947,-0.026778
,,,2022-11-15 17:46:31.599,-0.025105
,,,2022-11-15 17:46:32.283,-0.045188
,,,2022-11-15 17:46:32.938,-0.035146
,,,2022-11-15 17:46:33.597,-0.020084
,,,2022-11-15 17:46:34.254,-0.045188
,,,2022-11-15 17:46:34.934,-0.01841
,,,2022-11-15 17:46:35.612,-0.026778
,,,2022-11-15 17:46:36.280,-0.016736
,,,2022-11-15 17:46:36.916,-0.040167
,,,2022-11-15 17:46:37.590,-0.065272
,,,2022-11-15 17:46:38.277,-0.025105
,,,2022-11-15 17:46:38.949,-0.038494
,,,2022-11-15 17:46:39.608,-0.025105
,,,2022-11-15 17:46:40.273,-0.051883
,,,2022-11-15 17:46:40.944,-0.045188
,,,2022-11-15 17:46:41.599,-0.033473
,,,2022-11-15 17:46:42.250,-0.031799
,,,2022-11-15 17:46:42.916,-0.025105
,,,2022-11-15 17:46:43.575,-0.040167
,,,2022-11-15 17:46:44.230,-0.026778
,,,2022-11-15 17:46:44.890,-0.005021
,,,2022-11-15 17:46:45.564,-0.020084
,,,2022-11-15 17:46:46.235,-0.048536
,,,2022-11-15 17:46:46.899,-0.020084
,,,2022-11-15 17:46:47.557,-0.05523
,,,2022-11-15 17:46:48.208,-0.046862
,,,2022-11-15 17:46:48.872,-0.031799
,,,2022-11-15 17:46:49.556,-0.01841
,,,2022-11-15 17:46:50.239,-0.033473
,,,2022-11-15 17:46:50.917,-0.033473
,,,2022-11-15 17:46:51.589,-0.010042
,,,2022-11-15 17:46:52.238,-0.045188
,,,2022-11-15 17:46:52.904,-0.031799
,,,2022-11-15 17:46:53.569,-0.030126
,,,2022-11-15 17:46:54.235,-0.01841
,,,2022-11-15 17:46:54.904,-0.046862
,,,2022-11-15 17:46:55.569,-0.033473
,,,2022-11-15 17:46:56.204,-0.025105
,,,2022-11-15 17:46:56.857,-0.031799
,,,2022-11-15 17:46:57.517,-0.023431
,,,2022-11-15 17:46:58.176,-0.020084
,,,2022-11-15 17:46:58.840,-0.01841
,,,2022-11-15 17:46:59.496,-0.031799
,,,2022-11-15 17:47:00.279,-0.025105
,,,2022-11-15 17:47:00.939,-0.01841
,,,2022-11-15 17:47:01.590,-0.053556
,,,2022-11-15 17:47:02.241,-0.045188
,,,2022-11-15 17:47:02.908,-0.025105
,,,2022-11-15 17:47:03.594,-0.041841
,,,2022-11-15 17:47:04.258,-0.01841
,,,2022-11-15 17:47:04.934,-0.033473
,,,2022-11-15 17:47:05.582,-0.03682
,,,2022-11-15 17:47:06.246,-0.011715
,,,2022-11-15 17:47:06.916,-0.025105
,,,2022-11-15 17:47:07.583,-0.031799
,,,2022-11-15 17:47:08.248,-0.011715
,,,2022-11-15 17:47:08.911,-0.07364
,,,2022-11-15 17:47:09.581,-0.025105
,,,2022-11-15 17:47:10.249,-0.045188
,,,2022-11-15 17:47:10.916,-0.026778
,,,2022-11-15 17:47:11.579,-0.01841
,,,2022-11-15 17:47:12.256,-0.038494
,,,2022-11-15 17:47:12.914,-0.01841
,,,2022-11-15 17:47:13.580,-0.026778
,,,2022-11-15 17:47:14.240,-0.021757
,,,2022-11-15 17:47:14.904,-0.023431
,,,2022-11-15 17:47:15.566,-0.008368
,,,2022-11-15 17:47:16.229,-0.013389
,,,2022-11-15 17:47:16.898,-0.011715
,,,2022-11-15 17:47:17.558,-0.025105
,,,2022-11-15 17:47:18.229,-0.045188
,,,2022-11-15 17:47:18.889,-0.010042
,,,2022-11-15 17:47:19.550,-0.040167
,,,2022-11-15 17:47:20.218,-0.016736
,,,2022-11-15 17:47:20.885,-0.046862
,,,2022-11-15 17:47:21.548,-0.013389
,,,2022-11-15 17:47:22.211,-0.033473
,,,2022-11-15 17:47:22.878,-0.025105
,,,2022-11-15 17:47:23.540,-0.026778
,,,2022-11-15 17:47:24.209,-0.031799
,,,2022-11-15 17:47:24.878,-0.048536
,,,2022-11-15 17:47:25.538,-0.045188
,,,2022-11-15 17:47:26.211,-0.01841
,,,2022-11-15 17:47:26.874,-0.031799
,,,2022-11-15 17:47:27.542,-0.011715
,,,2022-11-15 17:47:28.211,-0.01841
,,,2022-11-15 17:47:28.877,-0.005021
,,,2022-11-15 17:47:29.542,-0.068619
,,,2022-11-15 17:47:30.216,-0.01841
,,,2022-11-15 17:47:30.876,-0.050209
,,,2022-11-15 17:47:31.541,-0.021757
,,,2022-11-15 17:47:32.206,-0.041841
,,,2022-11-15 17:47:32.873,-0.028452
,,,2022-11-15 17:47:33.541,-0.01841
,,,2022-11-15 17:47:34.206,-0.045188
,,,2022-11-15 17:47:34.881,-0.011715
,,,2022-11-15 17:47:35.567,-0.021757
,,,2022-11-15 17:47:36.270,-0.016736
,,,2022-11-15 17:47:36.933,-0.061925
,,,2022-11-15 17:47:37.608,-0.045188
,,,2022-11-15 17:47:38.269,-0.038494
,,,2022-11-15 17:47:38.939,-0.051883
,,,2022-11-15 17:47:39.614,-0.026778
,,,2022-11-15 17:47:40.294,-0.026778
,,,2022-11-15 17:47:40.969,-0.048536
,,,2022-11-15 17:47:41.639,-0.046862
,,,2022-11-15 17:47:42.311,-0.033473
,,,2022-11-15 17:47:42.979,-0.010042
,,,2022-11-15 17:47:43.640,-0.020084
,,,2022-11-15 17:47:44.312,-0.020084
,,,2022-11-15 17:47:44.987,-0.026778
,,,2022-11-15 17:47:45.654,-0.03682
,,,2022-11-15 17:47:46.313,-0.031799
,,,2022-11-15 17:47:46.983,-0.031799
,,,2022-11-15 17:47:47.653,-0.025105
,,,2022-11-15 17:47:48.322,-0.01841
,,,2022-11-15 17:47:48.988,-0.011715
,,,2022-11-15 17:47:49.657,-0.03682
,,,2022-11-15 17:47:50.334,-0.031799
,,,2022-11-15 17:47:51.018,-0.026778
,,,2022-11-15 17:47:51.699,-0.01841
,,,2022-11-15 17:47:52.380,-0.031799
,,,2022-11-15 17:47:53.051,-0.031799
,,,2022-11-15 17:47:53.717,-0.043515
,,,2022-11-15 17:47:54.382,-0.038494
,,,2022-11-15 17:47:55.051,-0.01841
,,,2022-11-15 17:47:55.725,-0.050209
,,,2022-11-15 17:47:56.367,-0.031799
,,,2022-11-15 17:47:57.033,-0.045188
,,,2022-11-15 17:47:57.701,-0.033473
,,,2022-11-15 17:47:58.366,-0.016736
,,,2022-11-15 17:47:59.031,-0.053556
,,,2022-11-15 17:47:59.709,-0.046862
,,,2022-11-15 17:48:00.390,-0.023431
,,,2022-11-15 17:48:01.066,-0.038494
,,,2022-11-15 17:48:01.751,-0.006695
,,,2022-11-15 17:48:02.488,-0.026778
,,,2022-11-15 17:48:03.206,-0.026778
,,,2022-11-15 17:48:03.855,-0.016736
,,,2022-11-15 17:48:04.503,-0.046862
,,,2022-11-15 17:48:05.187,-0.025105
,,,2022-11-15 17:48:05.844,-0.045188
,,,2022-11-15 17:48:06.494,-0.026778
,,,2022-11-15 17:48:07.157,-0.031799
,,,2022-11-15 17:48:07.812,-0.011715
,,,2022-11-15 17:48:08.456,-0.051883
,,,2022-11-15 17:48:09.130,-0.026778
,,,2022-11-15 17:48:09.800,-0.046862
,,,2022-11-15 17:48:10.496,-0.025105
,,,2022-11-15 17:48:11.146,-0.038494
,,,2022-11-15 17:48:11.798,-0.025105
,,,2022-11-15 17:48:12.442,-0.060251
,,,2022-11-15 17:48:13.088,-0.056904
,,,2022-11-15 17:48:13.726,-0.026778
,,,2022-11-15 17:48:14.378,-0.033473
,,,2022-11-15 17:48:15.021,-0.03682
,,,2022-11-15 17:48:15.669,-0.025105
,,,2022-11-15 17:48:16.317,-0.01841
,,,2022-11-15 17:48:16.969,-0.033473
,,,2022-11-15 17:48:17.609,-0.035146
,,,2022-11-15 17:48:18.253,-0.010042
,,,2022-11-15 17:48:18.900,-0.061925
,,,2022-11-15 17:48:19.543,-0.040167
,,,2022-11-15 17:48:20.193,-0.015063
,,,2022-11-15 17:48:20.851,-0.026778
,,,2022-11-15 17:48:21.499,-0.015063
,,,2022-11-15 17:48:22.145,-0.035146
,,,2022-11-15 17:48:22.791,-0.040167
,,,2022-11-15 17:48:23.439,-0.01841
,,,2022-11-15 17:48:24.091,-0.043515
,,,2022-11-15 17:48:24.748,-0.013389
,,,2022-11-15 17:48:25.390,-0.035146
,,,2022-11-15 17:48:26.036,-0.053556
,,,2022-11-15 17:48:26.681,-0.01841
,,,2022-11-15 17:48:27.322,-0.046862
,,,2022-11-15 17:48:27.989,-0.01841
,,,2022-11-15 17:48:28.637,-0.031799
,,,2022-11-15 17:48:29.290,-0.038494
,,,2022-11-15 17:48:29.937,-0.011715
,,,2022-11-15 17:48:30.581,-0.011715
,,,2022-11-15 17:48:31.227,-0.023431
,,,2022-11-15 17:48:31.874,-0.026778
,,,2022-11-15 17:48:32.505,-0.025105
,,,2022-11-15 17:48:33.152,-0.010042
,,,2022-11-15 17:48:33.790,-0.033473
,,,2022-11-15 17:48:34.426,-0.011715
,,,2022-11-15 17:48:35.083,-0.060251
,,,2022-11-15 17:48:35.718,-0.033473
,,,2022-11-15 17:48:36.370,-0.01841
,,,2022-11-15 17:48:37.015,-0.016736
,,,2022-11-15 17:48:37.660,-0.01841
,,,2022-11-15 17:48:38.350,-0.040167
,,,2022-11-15 17:48:39.000,-0.041841
,,,2022-11-15 17:48:39.643,-0.026778
,,,2022-11-15 17:48:40.303,-0.010042
,,,2022-11-15 17:48:40.950,-0.035146
,,,2022-11-15 17:48:41.595,-0.023431
,,,2022-11-15 17:48:42.239,-0.048536
,,,2022-11-15 17:48:42.884,-0.031799
,,,2022-11-15 17:48:43.525,-0.016736
,,,2022-11-15 17:48:44.169,-0.05523
,,,2022-11-15 17:48:44.816,-0.040167
,,,2022-11-15 17:48:45.461,-0.030126
,,,2022-11-15 17:48:46.106,-0.011715
,,,2022-11-15 17:48:46.747,-0.051883
,,,2022-11-15 17:48:47.387,-0.01841
,,,2022-11-15 17:48:48.033,-0.010042
,,,2022-11-15 17:48:48.677,-0.03682
,,,2022-11-15 17:48:49.331,-0.01841
,,,2022-11-15 17:48:49.983,-0.031799
,,,2022-11-15 17:48:50.625,-0.023431
,,,2022-11-15 17:48:51.262,-0.020084
,,,2022-11-15 17:48:51.908,-0.060251
,,,2022-11-15 17:48:52.548,-0.041841
,,,2022-11-15 17:48:53.199,-0.020084
,,,2022-11-15 17:48:53.846,-0.01841
,,,2022-11-15 17:48:54.490,-0.016736
,,,2022-11-15 17:48:55.138,-0.046862
,,,2022-11-15 17:48:55.795,-0.026778
,,,2022-11-15 17:48:56.429,-0.01841
,,,2022-11-15 17:48:57.079,-0.046862
,,,2022-11-15 17:48:57.724,-0.033473
,,,2022-11-15 17:48:58.368,-0.026778
,,,2022-11-15 17:48:59.013,-0.033473
,,,2022-11-15 17:48:59.658,-0.011715
,,,2022-11-15 17:49:00.306,-0.01841
,,,2022-11-15 17:49:00.949,-0.023431
,,,2022-11-15 17:49:01.589,-0.011715
,,,2022-11-15 17:49:02.227,-0.025105
,,,2022-11-15 17:49:02.876,-0.033473
,,,2022-11-15 17:49:03.512,-0.026778
,,,2022-11-15 17:49:04.153,-0.061925
,,,2022-11-15 17:49:04.801,-0.026778
,,,2022-11-15 17:49:05.442,-0.016736
,,,2022-11-15 17:49:06.094,-0.025105
,,,2022-11-15 17:49:06.749,-0.040167
,,,2022-11-15 17:49:07.402,-0.016736
,,,2022-11-15 17:49:08.052,-0.038494
,,,2022-11-15 17:49:08.706,-0.026778
,,,2022-11-15 17:49:09.346,-0.031799
,,,2022-11-15 17:49:09.987,-0.033473
,,,2022-11-15 17:49:10.636,-0.016736
,,,2022-11-15 17:49:11.293,-0.056904
,,,2022-11-15 17:49:11.941,-0.033473
,,,2022-11-15 17:49:12.576,-0.01841
,,,2022-11-15 17:49:13.218,-0.011715
,,,2022-11-15 17:49:13.857,-0.031799
,,,2022-11-15 17:49:14.498,-0.038494
,,,2022-11-15 17:49:15.157,-0.025105
,,,2022-11-15 17:49:15.801,-0.01841
,,,2022-11-15 17:49:16.440,-0.038494
,,,2022-11-15 17:49:17.091,-0.010042
,,,2022-11-15 17:49:17.737,-0.013389
,,,2022-11-15 17:49:18.378,-0.038494
,,,2022-11-15 17:49:19.023,-0.031799
,,,2022-11-15 17:49:19.671,-0.013389
,,,2022-11-15 17:49:20.322,-0.031799
,,,2022-11-15 17:49:20.971,-0.046862
,,,2022-11-15 17:49:21.616,-0.038494
,,,2022-11-15 17:49:22.262,-0.031799
,,,2022-11-15 17:49:22.910,-0.01841
,,,2022-11-15 17:49:23.554,-0.011715
,,,2022-11-15 17:49:24.206,-0.033473
,,,2022-11-15 17:49:24.848,-0.038494
,,,2022-11-15 17:49:25.494,-0.031799
,,,2022-11-15 17:49:26.146,-0.01841
,,,2022-11-15 17:49:26.792,-0.031799
,,,2022-11-15 17:49:27.436,-0.011715
,,,2022-11-15 17:49:28.086,-0.061925
,,,2022-11-15 17:49:28.728,-0.01841
,,,2022-11-15 17:49:29.377,-0.025105
,,,2022-11-15 17:49:30.023,-0.031799
,,,2022-11-15 17:49:30.671,-0.013389
,,,2022-11-15 17:49:31.318,-0.026778
,,,2022-11-15 17:49:31.961,-0.023431
,,,2022-11-15 17:49:32.608,-0.026778
,,,2022-11-15 17:49:33.261,-0.026778
,,,2022-11-15 17:49:33.906,-0.03682
,,,2022-11-15 17:49:34.550,-0.011715
,,,2022-11-15 17:49:35.198,-0.045188
,,,2022-11-15 17:49:35.865,-0.011715
,,,2022-11-15 17:49:36.523,-0.070293
,,,2022-11-15 17:49:37.176,-0.025105
,,,2022-11-15 17:49:37.822,-0.038494
,,,2022-11-15 17:49:38.480,-0.01841
,,,2022-11-15 17:49:39.126,-0.016736
,,,2022-11-15 17:49:39.793,-0.058577
,,,2022-11-15 17:49:40.431,-0.016736
,,,2022-11-15 17:49:41.079,-0.031799
,,,2022-11-15 17:49:41.724,-0.051883
,,,2022-11-15 17:49:42.371,-0.016736
,,,2022-11-15 17:49:43.015,-0.050209
,,,2022-11-15 17:49:43.675,-0.020084
,,,2022-11-15 17:49:44.323,-0.011715
,,,2022-11-15 17:49:44.973,-0.038494
,,,2022-11-15 17:49:45.613,-0.060251
,,,2022-11-15 17:49:46.254,-0.025105
,,,2022-11-15 17:49:46.904,-0.01841
,,,2022-11-15 17:49:47.561,-0.035146
,,,2022-11-15 17:49:48.212,-0.035146
,,,2022-11-15 17:49:48.860,-0.043515
,,,2022-11-15 17:49:49.497,-0.013389
,,,2022-11-15 17:49:50.143,-0.033473
,,,2022-11-15 17:49:50.796,-0.033473
,,,2022-11-15 17:49:51.444,-0.023431
,,,2022-11-15 17:49:52.095,-0.046862
,,,2022-11-15 17:49:52.733,-0.03682
,,,2022-11-15 17:49:53.382,-0.01841
,,,2022-11-15 17:49:54.032,-0.041841
,,,2022-11-15 17:49:54.677,-0.011715
,,,2022-11-15 17:49:55.334,-0.066946
,,,2022-11-15 17:49:55.977,-0.033473
,,,2022-11-15 17:49:56.610,-0.040167
,,,2022-11-15 17:49:57.243,-0.013389
,,,2022-11-15 17:49:57.886,-0.026778
,,,2022-11-15 17:49:58.644,-0.011715
,,,2022-11-15 17:49:59.294,-0.025105
,,,2022-11-15 17:49:59.943,-0.056904
,,,2022-11-15 17:50:00.590,-0.010042
,,,2022-11-15 17:50:01.261,-0.031799
,,,2022-11-15 17:50:01.897,-0.026778
,,,2022-11-15 17:50:02.541,-0.006695
,,,2022-11-15 17:50:03.191,-0.038494
,,,2022-11-15 17:50:03.842,-0.013389
,,,2022-11-15 17:50:04.490,-0.038494
,,,2022-11-15 17:50:05.135,-0.033473
,,,2022-11-15 17:50:05.784,-0.033473
,,,2022-11-15 17:50:06.422,-0.048536
,,,2022-11-15 17:50:07.066,-0.01841
,,,2022-11-15 17:50:07.714,-0.035146
,,,2022-11-15 17:50:08.362,-0.040167
,,,2022-11-15 17:50:09.011,-0.025105
,,,2022-11-15 17:50:09.661,-0.038494
,,,2022-11-15 17:50:10.307,-0.031799
,,,2022-11-15 17:50:10.953,-0.031799
,,,2022-11-15 17:50:11.594,-0.025105
,,,2022-11-15 17:50:12.245,-0.060251
,,,2022-11-15 17:50:12.903,-0.01841
,,,2022-11-15 17:50:13.552,-0.038494
,,,2022-11-15 17:50:14.205,-0.035146
,,,2022-11-15 17:50:14.852,-0.016736
,,,2022-11-15 17:50:15.492,-0.01841
,,,2022-11-15 17:50:16.137,-0.025105
,,,2022-11-15 17:50:16.790,-0.013389
,,,2022-11-15 17:50:17.436,-0.035146
,,,2022-11-15 17:50:18.086,-0.035146
,,,2022-11-15 17:50:18.730,-0.023431
,,,2022-11-15 17:50:19.380,-0.060251
,,,2022-11-15 17:50:20.026,-0.048536
,,,2022-11-15 17:50:20.686,-0.040167
,,,2022-11-15 17:50:21.334,-0.040167
,,,2022-11-15 17:50:21.988,-0.023431
,,,2022-11-15 17:50:22.634,-0.038494
,,,2022-11-15 17:50:23.279,-0.038494
,,,2022-11-15 17:50:23.923,-0.031799
,,,2022-11-15 17:50:24.557,-0.01841
,,,2022-11-15 17:50:25.207,-0.045188
,,,2022-11-15 17:50:25.858,-0.033473
,,,2022-11-15 17:50:26.500,-0.031799
,,,2022-11-15 17:50:27.149,-0.045188
,,,2022-11-15 17:50:27.805,-0.01841
,,,2022-11-15 17:50:28.455,-0.043515
,,,2022-11-15 17:50:29.133,-0.046862
,,,2022-11-15 17:50:29.777,-0.025105
,,,2022-11-15 17:50:30.416,-0.025105
,,,2022-11-15 17:50:31.058,-0.053556
,,,2022-11-15 17:50:31.698,-0.040167
,,,2022-11-15 17:50:32.342,-0.010042
,,,2022-11-15 17:50:32.986,-0.060251
,,,2022-11-15 17:50:33.631,-0.031799
,,,2022-11-15 17:50:34.275,-0.023431
,,,2022-11-15 17:50:34.927,-0.056904
,,,2022-11-15 17:50:35.584,-0.006695
,,,2022-11-15 17:50:36.220,-0.053556
,,,2022-11-15 17:50:36.871,-0.030126
,,,2022-11-15 17:50:37.514,-0.023431
,,,2022-11-15 17:50:38.154,-0.033473
,,,2022-11-15 17:50:38.805,-0.031799
,,,2022-11-15 17:50:39.452,-0.041841
,,,2022-11-15 17:50:40.098,-0.035146
,,,2022-11-15 17:50:40.738,-0.01841
,,,2022-11-15 17:50:41.384,-0.031799
,,,2022-11-15 17:50:42.028,-0.028452
,,,2022-11-15 17:50:42.674,-0.013389
,,,2022-11-15 17:50:43.320,-0.046862
,,,2022-11-15 17:50:43.972,-0.035146
,,,2022-11-15 17:50:44.616,-0.010042
,,,2022-11-15 17:50:45.253,-0.038494
,,,2022-11-15 17:50:45.893,-0.026778
,,,2022-11-15 17:50:46.533,-0.041841
,,,2022-11-15 17:50:47.180,-0.028452
,,,2022-11-15 17:50:47.820,-0.011715
,,,2022-11-15 17:50:48.466,-0.035146
,,,2022-11-15 17:50:49.118,-0.006695
,,,2022-11-15 17:50:49.758,-0.035146
,,,2022-11-15 17:50:50.408,-0.048536
,,,2022-11-15 17:50:51.052,-0.060251
,,,2022-11-15 17:50:51.698,-0.020084
,,,2022-11-15 17:50:52.342,-0.010042
,,,2022-11-15 17:50:52.991,-0.025105
,,,2022-11-15 17:50:53.640,-0.021757
,,,2022-11-15 17:50:54.288,-0.023431
,,,2022-11-15 17:50:54.925,-0.053556
,,,2022-11-15 17:50:55.565,-0.025105
,,,2022-11-15 17:50:56.213,-0.045188
,,,2022-11-15 17:50:56.839,-0.026778
,,,2022-11-15 17:50:57.484,-0.016736
,,,2022-11-15 17:50:58.138,-0.070293
,,,2022-11-15 17:50:58.780,-0.045188
,,,2022-11-15 17:50:59.422,-0.01841
,,,2022-11-15 17:51:00.076,-0.038494
,,,2022-11-15 17:51:00.712,-0.033473
,,,2022-11-15 17:51:01.362,-0.026778
,,,2022-11-15 17:51:02.016,-0.025105
,,,2022-11-15 17:51:02.662,-0.038494
,,,2022-11-15 17:51:03.309,-0.013389
,,,2022-11-15 17:51:03.955,-0.028452
,,,2022-11-15 17:51:04.594,-0.01841
,,,2022-11-15 17:51:05.237,-0.038494
,,,2022-11-15 17:51:05.870,-0.05523
,,,2022-11-15 17:51:06.514,-0.053556
,,,2022-11-15 17:51:07.170,-0.045188
,,,2022-11-15 17:51:07.820,-0.03682
,,,2022-11-15 17:51:08.464,-0.011715
,,,2022-11-15 17:51:09.113,-0.031799
,,,2022-11-15 17:51:09.758,-0.05523
,,,2022-11-15 17:51:10.404,-0.053556
,,,2022-11-15 17:51:11.053,-0.045188
,,,2022-11-15 17:51:11.696,-0.033473
,,,2022-11-15 17:51:12.345,-0.066946
,,,2022-11-15 17:51:12.995,-0.060251
,,,2022-11-15 17:51:13.635,-0.035146
,,,2022-11-15 17:51:14.283,-0.045188
,,,2022-11-15 17:51:14.952,-0.046862
,,,2022-11-15 17:51:15.598,-0.040167
,,,2022-11-15 17:51:16.241,-0.035146
,,,2022-11-15 17:51:16.881,-0.011715
,,,2022-11-15 17:51:17.522,-0.076987
,,,2022-11-15 17:51:18.167,-0.01841
,,,2022-11-15 17:51:18.815,-0.040167
,,,2022-11-15 17:51:19.470,-0.038494
,,,2022-11-15 17:51:20.123,-0.025105
,,,2022-11-15 17:51:20.773,-0.025105
,,,2022-11-15 17:51:21.415,-0.041841
,,,2022-11-15 17:51:22.060,-0.016736
,,,2022-11-15 17:51:22.713,-0.031799
,,,2022-11-15 17:51:23.365,-0.048536
,,,2022-11-15 17:51:24.003,-0.006695
,,,2022-11-15 17:51:24.648,-0.031799
,,,2022-11-15 17:51:25.297,-0.040167
,,,2022-11-15 17:51:25.939,-0.051883
,,,2022-11-15 17:51:26.582,-0.016736
,,,2022-11-15 17:51:27.242,-0.040167
,,,2022-11-15 17:51:27.890,-0.025105
,,,2022-11-15 17:51:28.645,-0.020084
,,,2022-11-15 17:51:29.308,-0.011715
,,,2022-11-15 17:51:29.958,-0.061925
,,,2022-11-15 17:51:30.593,-0.011715
,,,2022-11-15 17:51:31.238,-0.023431
,,,2022-11-15 17:51:31.889,-0.040167
,,,2022-11-15 17:51:32.536,-0.011715
,,,2022-11-15 17:51:33.187,-0.030126
,,,2022-11-15 17:51:33.837,-0.038494
,,,2022-11-15 17:51:34.479,-0.01841
,,,2022-11-15 17:51:35.123,-0.006695
,,,2022-11-15 17:51:35.767,-0.006695
,,,2022-11-15 17:51:36.427,-0.041841
,,,2022-11-15 17:51:37.067,-0.011715
,,,2022-11-15 17:51:37.714,-0.023431
,,,2022-11-15 17:51:38.365,-0.031799
,,,2022-11-15 17:51:39.015,-0.053556
,,,2022-11-15 17:51:39.660,-0.01841
,,,2022-11-15 17:51:40.309,-0.023431
,,,2022-11-15 17:51:40.959,-0.033473
,,,2022-11-15 17:51:41.601,-0.013389
,,,2022-11-15 17:51:42.245,-0.016736
,,,2022-11-15 17:51:42.888,-0.038494
,,,2022-11-15 17:51:43.530,-0.01841
,,,2022-11-15 17:51:44.178,-0.008368
,,,2022-11-15 17:51:44.817,-0.040167
,,,2022-11-15 17:51:45.463,-0.011715
,,,2022-11-15 17:51:46.112,-0.033473
,,,2022-11-15 17:51:46.755,-0.040167
,,,2022-11-15 17:51:47.402,-0.01841
,,,2022-11-15 17:51:48.042,-0.010042
,,,2022-11-15 17:51:48.688,-0.025105
,,,2022-11-15 17:51:49.335,-0.048536
,,,2022-11-15 17:51:49.981,-0.045188
,,,2022-11-15 17:51:50.635,-0.061925
,,,2022-11-15 17:51:51.286,-0.01841
,,,2022-11-15 17:51:51.934,-0.013389
,,,2022-11-15 17:51:52.577,-0.020084
,,,2022-11-15 17:51:53.225,-0.015063
,,,2022-11-15 17:51:53.869,-0.025105
,,,2022-11-15 17:51:54.514,-0.035146
,,,2022-11-15 17:51:55.158,-0.026778
,,,2022-11-15 17:51:55.811,-0.026778
,,,2022-11-15 17:51:56.453,-0.021757
,,,2022-11-15 17:51:57.078,-0.051883
,,,2022-11-15 17:51:57.713,-0.035146
,,,2022-11-15 17:51:58.360,-0.026778
,,,2022-11-15 17:51:59.002,-0.05523
,,,2022-11-15 17:51:59.645,-0.031799
,,,2022-11-15 17:52:00.293,-0.01841
,,,2022-11-15 17:52:00.940,-0.038494
,,,2022-11-15 17:52:01.585,-0.060251
,,,2022-11-15 17:52:02.226,-0.040167
,,,2022-11-15 17:52:02.872,-0.031799
,,,2022-11-15 17:52:03.518,-0.046862
,,,2022-11-15 17:52:04.166,-0.01841
,,,2022-11-15 17:52:04.810,-0.030126
,,,2022-11-15 17:52:05.453,-0.010042
,,,2022-11-15 17:52:06.093,-0.025105
,,,2022-11-15 17:52:06.734,-0.013389
,,,2022-11-15 17:52:07.382,-0.006695
,,,2022-11-15 17:52:08.024,-0.011715
,,,2022-11-15 17:52:08.672,-0.035146
,,,2022-11-15 17:52:09.316,-0.038494
,,,2022-11-15 17:52:09.961,-0.006695
,,,2022-11-15 17:52:10.605,-0.031799
,,,2022-11-15 17:52:11.292,-0.011715
,,,2022-11-15 17:52:11.947,-0.016736
,,,2022-11-15 17:52:12.583,-0.025105
,,,2022-11-15 17:52:13.243,-0.031799
,,,2022-11-15 17:52:13.895,-0.031799
,,,2022-11-15 17:52:14.531,-0.041841
,,,2022-11-15 17:52:15.181,-0.060251
,,,2022-11-15 17:52:15.846,-0.031799
,,,2022-11-15 17:52:16.494,-0.033473
,,,2022-11-15 17:52:17.138,-0.006695
,,,2022-11-15 17:52:17.787,-0.011715
,,,2022-11-15 17:52:18.426,-0.038494
,,,2022-11-15 17:52:19.067,-0.016736
,,,2022-11-15 17:52:19.711,-0.026778
,,,2022-11-15 17:52:20.355,-0.068619
,,,2022-11-15 17:52:21.003,-0.026778
,,,2022-11-15 17:52:21.649,-0.038494
,,,2022-11-15 17:52:22.300,-0.01841
,,,2022-11-15 17:52:22.939,-0.031799
,,,2022-11-15 17:52:23.580,-0.011715
,,,2022-11-15 17:52:24.234,-0.038494
,,,2022-11-15 17:52:24.889,-0.031799
,,,2022-11-15 17:52:25.535,-0.041841
,,,2022-11-15 17:52:26.178,-0.013389
,,,2022-11-15 17:52:26.841,-0.026778
,,,2022-11-15 17:52:27.491,-0.031799
,,,2022-11-15 17:52:28.136,-0.05523
,,,2022-11-15 17:52:28.789,-0.041841
,,,2022-11-15 17:52:29.432,-0.023431
,,,2022-11-15 17:52:30.080,-0.031799
,,,2022-11-15 17:52:30.722,-0.046862
,,,2022-11-15 17:52:31.372,-0.013389
,,,2022-11-15 17:52:32.024,-0.01841
,,,2022-11-15 17:52:32.669,-0.006695
,,,2022-11-15 17:52:33.316,-0.006695
,,,2022-11-15 17:52:33.956,-0.020084
,,,2022-11-15 17:52:34.608,-0.01841
,,,2022-11-15 17:52:35.308,-0.031799
,,,2022-11-15 17:52:35.965,-0.053556
,,,2022-11-15 17:52:36.608,-0.025105
,,,2022-11-15 17:52:37.246,-0.058577
,,,2022-11-15 17:52:37.885,-0.011715
,,,2022-11-15 17:52:38.527,-0.040167
,,,2022-11-15 17:52:39.182,-0.046862
,,,2022-11-15 17:52:39.821,-0.038494
,,,2022-11-15 17:52:40.472,-0.068619
,,,2022-11-15 17:52:41.120,-0.030126
,,,2022-11-15 17:52:41.767,-0.040167
,,,2022-11-15 17:52:42.407,-0.063598
,,,2022-11-15 17:52:43.056,-0.031799
,,,2022-11-15 17:52:43.708,-0.025105
,,,2022-11-15 17:52:44.352,-0.020084
,,,2022-11-15 17:52:44.997,-0.031799
,,,2022-11-15 17:52:45.638,-0.030126
,,,2022-11-15 17:52:46.286,-0.01841
,,,2022-11-15 17:52:46.930,-0.011715
,,,2022-11-15 17:52:47.577,-0.028452
,,,2022-11-15 17:52:48.227,-0.016736
,,,2022-11-15 17:52:48.873,-0.056904
,,,2022-11-15 17:52:49.518,-0.045188
,,,2022-11-15 17:52:50.164,-0.068619
,,,2022-11-15 17:52:50.814,-0.041841
,,,2022-11-15 17:52:51.461,-0.033473
,,,2022-11-15 17:52:52.118,-0.031799
,,,2022-11-15 17:52:52.763,-0.021757
,,,2022-11-15 17:52:53.402,-0.016736
,,,2022-11-15 17:52:54.047,-0.033473
,,,2022-11-15 17:52:54.691,-0.031799
,,,2022-11-15 17:52:55.337,-0.026778
,,,2022-11-15 17:52:55.983,-0.061925
,,,2022-11-15 17:52:56.629,-0.03682
,,,2022-11-15 17:52:57.272,-0.046862
,,,2022-11-15 17:52:57.912,-0.066946
,,,2022-11-15 17:52:58.559,-0.03682
,,,2022-11-15 17:52:59.211,-0.053556
,,,2022-11-15 17:52:59.853,-0.045188
,,,2022-11-15 17:53:00.489,-0.048536
,,,2022-11-15 17:53:01.138,-0.01841
,,,2022-11-15 17:53:01.780,-0.025105
,,,2022-11-15 17:53:02.421,-0.016736
,,,2022-11-15 17:53:03.065,-0.006695
,,,2022-11-15 17:53:03.710,-0.010042
,,,2022-11-15 17:53:04.353,-0.031799
,,,2022-11-15 17:53:05.004,-0.010042
,,,2022-11-15 17:53:05.647,-0.040167
,,,2022-11-15 17:53:06.288,-0.025105
,,,2022-11-15 17:53:06.934,-0.040167
,,,2022-11-15 17:53:07.579,-0.010042
,,,2022-11-15 17:53:08.230,-0.033473
,,,2022-11-15 17:53:08.880,-0.011715
,,,2022-11-15 17:53:09.524,-0.033473
,,,2022-11-15 17:53:10.178,-0.026778
,,,2022-11-15 17:53:10.822,-0.033473
,,,2022-11-15 17:53:11.463,-0.011715
,,,2022-11-15 17:53:12.112,-0.010042
,,,2022-11-15 17:53:12.760,-0.016736
,,,2022-11-15 17:53:13.410,-0.053556
,,,2022-11-15 17:53:14.060,-0.006695
,,,2022-11-15 17:53:14.706,-0.01841
,,,2022-11-15 17:53:15.355,-0.040167
,,,2022-11-15 17:53:16.000,-0.028452
,,,2022-11-15 17:53:16.645,-0.016736
,,,2022-11-15 17:53:17.295,-0.01841
,,,2022-11-15 17:53:17.944,-0.026778
,,,2022-11-15 17:53:18.593,-0.016736
,,,2022-11-15 17:53:19.230,-0.016736
,,,2022-11-15 17:53:19.875,-0.033473
,,,2022-11-15 17:53:20.519,-0.010042
,,,2022-11-15 17:53:21.162,-0.010042
,,,2022-11-15 17:53:21.799,-0.010042
,,,2022-11-15 17:53:22.447,-0.035146
,,,2022-11-15 17:53:23.106,-0.046862
,,,2022-11-15 17:53:23.751,-0.07364
,,,2022-11-15 17:53:24.397,-0.011715
,,,2022-11-15 17:53:25.041,-0.035146
,,,2022-11-15 17:53:25.693,-0.05523
,,,2022-11-15 17:53:26.343,-0.01841
,,,2022-11-15 17:53:26.991,-0.031799
,,,2022-11-15 17:53:27.635,-0.045188
,,,2022-11-15 17:53:28.284,-0.038494
,,,2022-11-15 17:53:28.921,-0.023431
,,,2022-11-15 17:53:29.566,-0.020084
,,,2022-11-15 17:53:30.207,-0.01841
,,,2022-11-15 17:53:30.855,-0.010042
,,,2022-11-15 17:53:31.500,-0.025105
,,,2022-11-15 17:53:32.143,-0.035146
,,,2022-11-15 17:53:32.798,-0.020084
,,,2022-11-15 17:53:33.442,-0.025105
,,,2022-11-15 17:53:34.089,-0.025105
,,,2022-11-15 17:53:34.738,-0.016736
,,,2022-11-15 17:53:35.390,-0.016736
,,,2022-11-15 17:53:36.057,-0.058577
,,,2022-11-15 17:53:36.691,-0.041841
,,,2022-11-15 17:53:37.380,-0.025105
,,,2022-11-15 17:53:38.036,-0.016736
,,,2022-11-15 17:53:38.685,-0.006695
,,,2022-11-15 17:53:39.336,-0.01841
,,,2022-11-15 17:53:39.982,-0.01841
,,,2022-11-15 17:53:40.625,-0.025105
,,,2022-11-15 17:53:41.265,-0.053556
,,,2022-11-15 17:53:41.911,-0.03682
,,,2022-11-15 17:53:42.553,-0.026778
,,,2022-11-15 17:53:43.198,-0.010042
,,,2022-11-15 17:53:43.855,-0.031799
,,,2022-11-15 17:53:44.488,-0.061925
,,,2022-11-15 17:53:45.135,-0.01841
,,,2022-11-15 17:53:45.791,-0.048536
,,,2022-11-15 17:53:46.433,-0.040167
,,,2022-11-15 17:53:47.080,-0.053556
,,,2022-11-15 17:53:47.727,-0.03682
,,,2022-11-15 17:53:48.374,-0.026778
,,,2022-11-15 17:53:49.024,-0.068619
,,,2022-11-15 17:53:49.672,-0.046862
,,,2022-11-15 17:53:50.319,-0.020084
,,,2022-11-15 17:53:50.951,-0.016736
,,,2022-11-15 17:53:51.598,-0.046862
,,,2022-11-15 17:53:52.241,-0.075314
,,,2022-11-15 17:53:52.888,-0.035146
,,,2022-11-15 17:53:53.534,-0.035146
,,,2022-11-15 17:53:54.189,-0.016736
,,,2022-11-15 17:53:54.838,-0.035146
,,,2022-11-15 17:53:55.481,-0.011715
,,,2022-11-15 17:53:56.130,-0.016736
,,,2022-11-15 17:53:56.775,-0.075314
,,,2022-11-15 17:53:57.413,-0.011715
,,,2022-11-15 17:53:58.063,-0.033473
,,,2022-11-15 17:53:58.713,-0.020084
,,,2022-11-15 17:53:59.359,-0.033473
,,,2022-11-15 17:54:00.000,-0.016736
,,,2022-11-15 17:54:00.644,-0.038494
,,,2022-11-15 17:54:01.297,-0.023431
,,,2022-11-15 17:54:01.945,-0.01841
,,,2022-11-15 17:54:02.585,-0.016736
,,,2022-11-15 17:54:03.234,-0.040167
,,,2022-11-15 17:54:03.894,-0.041841
,,,2022-11-15 17:54:04.538,-0.031799
,,,2022-11-15 17:54:05.188,-0.075314
,,,2022-11-15 17:54:05.836,-0.025105
,,,2022-11-15 17:54:06.485,-0.046862
,,,2022-11-15 17:54:07.139,-0.053556
,,,2022-11-15 17:54:07.788,-0.040167
,,,2022-11-15 17:54:08.430,-0.025105
,,,2022-11-15 17:54:09.076,-0.040167
,,,2022-11-15 17:54:09.719,-0.040167
,,,2022-11-15 17:54:10.368,-0.07364
,,,2022-11-15 17:54:11.019,-0.01841
,,,2022-11-15 17:54:11.665,-0.033473
,,,2022-11-15 17:54:12.318,-0.023431
,,,2022-11-15 17:54:12.986,-0.033473
,,,2022-11-15 17:54:13.633,-0.01841
,,,2022-11-15 17:54:14.274,-0.040167
,,,2022-11-15 17:54:14.919,-0.025105
,,,2022-11-15 17:54:15.568,-0.031799
,,,2022-11-15 17:54:16.219,-0.011715
,,,2022-11-15 17:54:16.867,-0.038494
,,,2022-11-15 17:54:17.517,-0.006695
,,,2022-11-15 17:54:18.165,-0.075314
,,,2022-11-15 17:54:18.808,-0.025105
,,,2022-11-15 17:54:19.458,-0.046862
,,,2022-11-15 17:54:20.106,-0.025105
,,,2022-11-15 17:54:20.725,-0.031799
,,,2022-11-15 17:54:21.368,-0.105439
,,,2022-11-15 17:54:22.018,-0.033473
,,,2022-11-15 17:54:22.656,-0.01841
,,,2022-11-15 17:54:23.313,-0.020084
,,,2022-11-15 17:54:23.963,-0.030126
,,,2022-11-15 17:54:24.609,-0.025105
,,,2022-11-15 17:54:25.275,-0.028452
,,,2022-11-15 17:54:25.921,-0.016736
,,,2022-11-15 17:54:26.560,-0.025105
,,,2022-11-15 17:54:27.205,-0.048536
,,,2022-11-15 17:54:27.854,-0.038494
,,,2022-11-15 17:54:28.498,-0.033473
,,,2022-11-15 17:54:29.145,-0.030126
,,,2022-11-15 17:54:29.795,-0.01841
,,,2022-11-15 17:54:30.435,-0.038494
,,,2022-11-15 17:54:31.072,-0.050209
,,,2022-11-15 17:54:31.709,-0.035146
,,,2022-11-15 17:54:32.359,-0.046862
,,,2022-11-15 17:54:33.008,-0.031799
,,,2022-11-15 17:54:33.648,-0.011715
,,,2022-11-15 17:54:34.297,-0.01841
,,,2022-11-15 17:54:34.940,-0.026778
,,,2022-11-15 17:54:35.583,-0.035146
,,,2022-11-15 17:54:36.244,-0.025105
,,,2022-11-15 17:54:36.896,-0.01841
,,,2022-11-15 17:54:37.539,-0.01841
,,,2022-11-15 17:54:38.176,-0.021757
,,,2022-11-15 17:54:38.823,-0.046862
,,,2022-11-15 17:54:39.464,-0.011715
,,,2022-11-15 17:54:40.110,-0.060251
,,,2022-11-15 17:54:40.752,-0.05523
,,,2022-11-15 17:54:41.401,-0.01841
,,,2022-11-15 17:54:42.048,-0.013389
,,,2022-11-15 17:54:42.710,-0.026778
,,,2022-11-15 17:54:43.374,-0.033473
,,,2022-11-15 17:54:44.021,-0.056904
,,,2022-11-15 17:54:44.666,-0.046862
,,,2022-11-15 17:54:45.314,-0.016736
,,,2022-11-15 17:54:45.966,-0.020084
,,,2022-11-15 17:54:46.610,-0.068619
,,,2022-11-15 17:54:47.270,-0.01841
,,,2022-11-15 17:54:47.915,-0.031799
,,,2022-11-15 17:54:48.553,-0.016736
,,,2022-11-15 17:54:49.199,-0.040167
,,,2022-11-15 17:54:49.842,-0.048536
,,,2022-11-15 17:54:50.489,-0.025105
,,,2022-11-15 17:54:51.130,-0.041841
,,,2022-11-15 17:54:51.772,-0.031799
,,,2022-11-15 17:54:52.417,-0.005021
,,,2022-11-15 17:54:53.061,-0.025105
,,,2022-11-15 17:54:53.703,-0.01841
,,,2022-11-15 17:54:54.347,-0.011715
