Address:,USB0::0x0957::0x17BC::MY60101365::0::INSTR,,Time (s),Minimum(4) (V)
Model:,MSO-X 4154A,,2022-11-15 14:18:41.237,-0.082008
Serial Number:,MY60101365,,2022-11-15 14:18:41.737,-0.071967
Firmware Version:,07.31.2020012900,,2022-11-15 14:18:42.237,-0.076987
Start Time:,2022-11-15 14:18:41.237,,2022-11-15 14:18:42.737,-0.097071
Stop Time:,2022-11-15 14:28:41.236,,2022-11-15 14:18:43.237,-0.105439
Sample Period:,0.5,,2022-11-15 14:18:43.738,-0.061925
,,,2022-11-15 14:18:44.236,-0.075314
,,,2022-11-15 14:18:44.736,-0.006695
,,,2022-11-15 14:18:45.236,-0.090377
,,,2022-11-15 14:18:45.736,-0.098745
,,,2022-11-15 14:18:46.237,-0.068619
,,,2022-11-15 14:18:46.737,-0.098745
,,,2022-11-15 14:18:47.237,-0.087029
,,,2022-11-15 14:18:47.737,-0.060251
,,,2022-11-15 14:18:48.237,-0.075314
,,,2022-11-15 14:18:48.737,-0.068619
,,,2022-11-15 14:18:49.238,-0.060251
,,,2022-11-15 14:18:49.737,-0.006695
,,,2022-11-15 14:18:50.236,-0.071967
,,,2022-11-15 14:18:50.739,-0.061925
,,,2022-11-15 14:18:51.239,-0.060251
,,,2022-11-15 14:18:51.737,-0.058577
,,,2022-11-15 14:18:52.237,-0.058577
,,,2022-11-15 14:18:52.738,-0.070293
,,,2022-11-15 14:18:53.238,-0.122176
,,,2022-11-15 14:18:53.738,-0.09205
,,,2022-11-15 14:18:54.237,-0.063598
,,,2022-11-15 14:18:54.738,-0.063598
,,,2022-11-15 14:18:55.238,-0.05523
,,,2022-11-15 14:18:55.738,-0.07364
,,,2022-11-15 14:18:56.238,-0.160669
,,,2022-11-15 14:18:56.739,-0.070293
,,,2022-11-15 14:18:57.238,-0.085356
,,,2022-11-15 14:18:57.737,-0.082008
,,,2022-11-15 14:18:58.238,-0.068619
,,,2022-11-15 14:18:58.737,-0.083682
,,,2022-11-15 14:18:59.237,-0.065272
,,,2022-11-15 14:18:59.737,-0.088703
,,,2022-11-15 14:19:00.237,-0.05523
,,,2022-11-15 14:19:00.737,-0.090377
,,,2022-11-15 14:19:01.238,-0.053556
,,,2022-11-15 14:19:01.737,-0.05523
,,,2022-11-15 14:19:02.238,-0.11046
,,,2022-11-15 14:19:02.737,-0.082008
,,,2022-11-15 14:19:03.238,-0.085356
,,,2022-11-15 14:19:03.738,-0.058577
,,,2022-11-15 14:19:04.237,-0.068619
,,,2022-11-15 14:19:04.737,-0.103766
,,,2022-11-15 14:19:05.237,-0.085356
,,,2022-11-15 14:19:05.738,-0.103766
,,,2022-11-15 14:19:06.238,-0.061925
,,,2022-11-15 14:19:06.737,-0.068619
,,,2022-11-15 14:19:07.238,-0.075314
,,,2022-11-15 14:19:07.737,-0.120502
,,,2022-11-15 14:19:08.238,-0.085356
,,,2022-11-15 14:19:08.738,-0.061925
,,,2022-11-15 14:19:09.238,-0.083682
,,,2022-11-15 14:19:09.737,-0.085356
,,,2022-11-15 14:19:10.237,-0.070293
,,,2022-11-15 14:19:10.737,-0.095397
,,,2022-11-15 14:19:11.238,-0.090377
,,,2022-11-15 14:19:11.737,-0.083682
,,,2022-11-15 14:19:12.237,-0.061925
,,,2022-11-15 14:19:12.738,-0.075314
,,,2022-11-15 14:19:13.237,-0.05523
,,,2022-11-15 14:19:13.738,-0.102092
,,,2022-11-15 14:19:14.237,-0.105439
,,,2022-11-15 14:19:14.737,-0.118828
,,,2022-11-15 14:19:15.237,-0.105439
,,,2022-11-15 14:19:15.738,-0.123849
,,,2022-11-15 14:19:16.237,-0.058577
,,,2022-11-15 14:19:16.738,-0.05523
,,,2022-11-15 14:19:17.238,-0.083682
,,,2022-11-15 14:19:17.737,-0.05523
,,,2022-11-15 14:19:18.236,-0.05523
,,,2022-11-15 14:19:18.736,-0.088703
,,,2022-11-15 14:19:19.236,-0.060251
,,,2022-11-15 14:19:19.736,-0.093724
,,,2022-11-15 14:19:20.236,-0.068619
,,,2022-11-15 14:19:20.736,-0.083682
,,,2022-11-15 14:19:21.237,-0.138912
,,,2022-11-15 14:19:21.737,-0.05523
,,,2022-11-15 14:19:22.237,-0.102092
,,,2022-11-15 14:19:22.736,-0.060251
,,,2022-11-15 14:19:23.236,-0.078661
,,,2022-11-15 14:19:23.737,-0.061925
,,,2022-11-15 14:19:24.237,-0.103766
,,,2022-11-15 14:19:24.737,-0.113808
,,,2022-11-15 14:19:25.237,-0.11046
,,,2022-11-15 14:19:25.738,-0.075314
,,,2022-11-15 14:19:26.237,-0.075314
,,,2022-11-15 14:19:26.736,-0.071967
,,,2022-11-15 14:19:27.237,-0.107113
,,,2022-11-15 14:19:27.736,-0.090377
,,,2022-11-15 14:19:28.236,-0.063598
,,,2022-11-15 14:19:28.736,-0.006695
,,,2022-11-15 14:19:29.237,-0.130544
,,,2022-11-15 14:19:29.737,-0.05523
,,,2022-11-15 14:19:30.237,-0.118828
,,,2022-11-15 14:19:30.738,-0.087029
,,,2022-11-15 14:19:31.237,-0.082008
,,,2022-11-15 14:19:31.736,-0.108787
,,,2022-11-15 14:19:32.236,-0.075314
,,,2022-11-15 14:19:32.736,-0.090377
,,,2022-11-15 14:19:33.236,-0.056904
,,,2022-11-15 14:19:33.737,-0.068619
,,,2022-11-15 14:19:34.237,-0.05523
,,,2022-11-15 14:19:34.737,-0.07364
,,,2022-11-15 14:19:35.238,-0.070293
,,,2022-11-15 14:19:35.737,-0.066946
,,,2022-11-15 14:19:36.236,-0.123849
,,,2022-11-15 14:19:36.737,-0.068619
,,,2022-11-15 14:19:37.238,-0.066946
,,,2022-11-15 14:19:37.736,-0.09205
,,,2022-11-15 14:19:38.237,-0.060251
,,,2022-11-15 14:19:38.737,-0.058577
,,,2022-11-15 14:19:39.237,-0.056904
,,,2022-11-15 14:19:39.738,-0.082008
,,,2022-11-15 14:19:40.238,-0.061925
,,,2022-11-15 14:19:40.737,-0.013389
,,,2022-11-15 14:19:41.237,-0.05523
,,,2022-11-15 14:19:41.738,-0.082008
,,,2022-11-15 14:19:42.237,-0.088703
,,,2022-11-15 14:19:42.738,-0.088703
,,,2022-11-15 14:19:43.239,-0.060251
,,,2022-11-15 14:19:43.739,-0.05523
,,,2022-11-15 14:19:44.239,-0.05523
,,,2022-11-15 14:19:44.738,-0.083682
,,,2022-11-15 14:19:45.238,-0.085356
,,,2022-11-15 14:19:45.738,-0.085356
,,,2022-11-15 14:19:46.237,-0.068619
,,,2022-11-15 14:19:46.737,-0.068619
,,,2022-11-15 14:19:47.238,-0.09205
,,,2022-11-15 14:19:47.737,-0.105439
,,,2022-11-15 14:19:48.237,-0.093724
,,,2022-11-15 14:19:48.739,-0.068619
,,,2022-11-15 14:19:49.241,-0.07364
,,,2022-11-15 14:19:49.739,-0.11046
,,,2022-11-15 14:19:50.238,-0.058577
,,,2022-11-15 14:19:50.738,-0.05523
,,,2022-11-15 14:19:51.237,-0.07364
,,,2022-11-15 14:19:51.737,-0.065272
,,,2022-11-15 14:19:52.238,-0.105439
,,,2022-11-15 14:19:52.738,-0.140586
,,,2022-11-15 14:19:53.238,-0.090377
,,,2022-11-15 14:19:53.736,-0.066946
,,,2022-11-15 14:19:54.237,-0.142259
,,,2022-11-15 14:19:54.737,-0.087029
,,,2022-11-15 14:19:55.238,-0.061925
,,,2022-11-15 14:19:55.737,-0.078661
,,,2022-11-15 14:19:56.238,-0.098745
,,,2022-11-15 14:19:56.737,-0.088703
,,,2022-11-15 14:19:57.237,-0.061925
,,,2022-11-15 14:19:57.738,-0.05523
,,,2022-11-15 14:19:58.238,-0.108787
,,,2022-11-15 14:19:58.738,-0.132218
,,,2022-11-15 14:19:59.237,-0.098745
,,,2022-11-15 14:19:59.736,-0.068619
,,,2022-11-15 14:20:00.237,-0.108787
,,,2022-11-15 14:20:00.738,-0.090377
,,,2022-11-15 14:20:01.237,-0.053556
,,,2022-11-15 14:20:01.736,-0.09205
,,,2022-11-15 14:20:02.237,-0.113808
,,,2022-11-15 14:20:02.738,-0.100418
,,,2022-11-15 14:20:03.238,-0.075314
,,,2022-11-15 14:20:03.738,-0.107113
,,,2022-11-15 14:20:04.237,-0.070293
,,,2022-11-15 14:20:04.737,-0.05523
,,,2022-11-15 14:20:05.237,-0.090377
,,,2022-11-15 14:20:05.737,-0.088703
,,,2022-11-15 14:20:06.237,-0.063598
,,,2022-11-15 14:20:06.738,-0.078661
,,,2022-11-15 14:20:07.237,-0.085356
,,,2022-11-15 14:20:07.738,-0.066946
,,,2022-11-15 14:20:08.237,-0.05523
,,,2022-11-15 14:20:08.737,-0.053556
,,,2022-11-15 14:20:09.236,-0.095397
,,,2022-11-15 14:20:09.737,-0.09205
,,,2022-11-15 14:20:10.238,-0.127197
,,,2022-11-15 14:20:10.736,-0.020084
,,,2022-11-15 14:20:11.237,-0.053556
,,,2022-11-15 14:20:11.737,-0.063598
,,,2022-11-15 14:20:12.237,-0.068619
,,,2022-11-15 14:20:12.737,-0.082008
,,,2022-11-15 14:20:13.238,-0.060251
,,,2022-11-15 14:20:13.737,-0.080335
,,,2022-11-15 14:20:14.237,-0.061925
,,,2022-11-15 14:20:14.737,-0.075314
,,,2022-11-15 14:20:15.237,-0.105439
,,,2022-11-15 14:20:15.737,-0.095397
,,,2022-11-15 14:20:16.237,-0.102092
,,,2022-11-15 14:20:16.737,-0.063598
,,,2022-11-15 14:20:17.237,-0.112134
,,,2022-11-15 14:20:17.737,-0.083682
,,,2022-11-15 14:20:18.237,-0.07364
,,,2022-11-15 14:20:18.736,-0.11046
,,,2022-11-15 14:20:19.235,-0.061925
,,,2022-11-15 14:20:19.736,-0.082008
,,,2022-11-15 14:20:20.236,-0.105439
,,,2022-11-15 14:20:20.737,-0.083682
,,,2022-11-15 14:20:21.237,-0.075314
,,,2022-11-15 14:20:21.738,-0.080335
,,,2022-11-15 14:20:22.237,-0.113808
,,,2022-11-15 14:20:22.737,-0.09205
,,,2022-11-15 14:20:23.237,-0.085356
,,,2022-11-15 14:20:23.737,-0.080335
,,,2022-11-15 14:20:24.237,-0.068619
,,,2022-11-15 14:20:24.737,-0.123849
,,,2022-11-15 14:20:25.237,-0.056904
,,,2022-11-15 14:20:25.736,-0.09205
,,,2022-11-15 14:20:26.236,-0.061925
,,,2022-11-15 14:20:26.736,-0.065272
,,,2022-11-15 14:20:27.236,-0.006695
,,,2022-11-15 14:20:27.736,-0.075314
,,,2022-11-15 14:20:28.236,-0.103766
,,,2022-11-15 14:20:28.737,-0.078661
,,,2022-11-15 14:20:29.238,-0.090377
,,,2022-11-15 14:20:29.738,-0.061925
,,,2022-11-15 14:20:30.237,-0.152301
,,,2022-11-15 14:20:30.737,-0.05523
,,,2022-11-15 14:20:31.237,-0.078661
,,,2022-11-15 14:20:31.737,-0.095397
,,,2022-11-15 14:20:32.237,-0.07364
,,,2022-11-15 14:20:32.736,-0.075314
,,,2022-11-15 14:20:33.237,-0.068619
,,,2022-11-15 14:20:33.739,-0.053556
,,,2022-11-15 14:20:34.239,-0.056904
,,,2022-11-15 14:20:34.737,-0.09205
,,,2022-11-15 14:20:35.237,-0.103766
,,,2022-11-15 14:20:35.737,-0.090377
,,,2022-11-15 14:20:36.237,-0.061925
,,,2022-11-15 14:20:36.737,-0.085356
,,,2022-11-15 14:20:37.237,-0.053556
,,,2022-11-15 14:20:37.738,-0.05523
,,,2022-11-15 14:20:38.241,-0.098745
,,,2022-11-15 14:20:38.738,-0.078661
,,,2022-11-15 14:20:39.239,-0.078661
,,,2022-11-15 14:20:39.738,-0.078661
,,,2022-11-15 14:20:40.238,-0.083682
,,,2022-11-15 14:20:40.738,-0.112134
,,,2022-11-15 14:20:41.237,-0.113808
,,,2022-11-15 14:20:41.737,-0.061925
,,,2022-11-15 14:20:42.239,-0.063598
,,,2022-11-15 14:20:42.738,-0.05523
,,,2022-11-15 14:20:43.238,-0.098745
,,,2022-11-15 14:20:43.738,-0.078661
,,,2022-11-15 14:20:44.239,-0.061925
,,,2022-11-15 14:20:44.737,-0.066946
,,,2022-11-15 14:20:45.237,-0.088703
,,,2022-11-15 14:20:45.738,-0.085356
,,,2022-11-15 14:20:46.238,-0.060251
,,,2022-11-15 14:20:46.738,-0.053556
,,,2022-11-15 14:20:47.238,-0.065272
,,,2022-11-15 14:20:47.738,-0.075314
,,,2022-11-15 14:20:48.237,-0.083682
,,,2022-11-15 14:20:48.738,-0.125523
,,,2022-11-15 14:20:49.238,-0.068619
,,,2022-11-15 14:20:49.737,-0.122176
,,,2022-11-15 14:20:50.238,-0.068619
,,,2022-11-15 14:20:50.737,-0.090377
,,,2022-11-15 14:20:51.236,-0.070293
,,,2022-11-15 14:20:51.737,-0.071967
,,,2022-11-15 14:20:52.237,-0.118828
,,,2022-11-15 14:20:52.737,-0.061925
,,,2022-11-15 14:20:53.237,-0.070293
,,,2022-11-15 14:20:53.737,-0.095397
,,,2022-11-15 14:20:54.237,-0.05523
,,,2022-11-15 14:20:54.738,-0.113808
,,,2022-11-15 14:20:55.236,-0.088703
,,,2022-11-15 14:20:55.737,-0.05523
,,,2022-11-15 14:20:56.238,-0.09205
,,,2022-11-15 14:20:56.738,-0.098745
,,,2022-11-15 14:20:57.236,-0.075314
,,,2022-11-15 14:20:57.737,-0.063598
,,,2022-11-15 14:20:58.238,-0.075314
,,,2022-11-15 14:20:58.738,-0.098745
,,,2022-11-15 14:20:59.236,-0.058577
,,,2022-11-15 14:20:59.737,-0.058577
,,,2022-11-15 14:21:00.237,-0.075314
,,,2022-11-15 14:21:00.737,-0.058577
,,,2022-11-15 14:21:01.237,-0.063598
,,,2022-11-15 14:21:01.737,-0.085356
,,,2022-11-15 14:21:02.237,-0.076987
,,,2022-11-15 14:21:02.736,-0.080335
,,,2022-11-15 14:21:03.237,-0.060251
,,,2022-11-15 14:21:03.738,-0.066946
,,,2022-11-15 14:21:04.237,-0.083682
,,,2022-11-15 14:21:04.737,-0.083682
,,,2022-11-15 14:21:05.237,-0.070293
,,,2022-11-15 14:21:05.737,-0.068619
,,,2022-11-15 14:21:06.238,-0.075314
,,,2022-11-15 14:21:06.736,-0.112134
,,,2022-11-15 14:21:07.235,-0.068619
,,,2022-11-15 14:21:07.737,-0.097071
,,,2022-11-15 14:21:08.237,-0.065272
,,,2022-11-15 14:21:08.738,-0.097071
,,,2022-11-15 14:21:09.236,-0.060251
,,,2022-11-15 14:21:09.736,-0.05523
,,,2022-11-15 14:21:10.237,-0.068619
,,,2022-11-15 14:21:10.738,-0.068619
,,,2022-11-15 14:21:11.237,-0.076987
,,,2022-11-15 14:21:11.736,-0.082008
,,,2022-11-15 14:21:12.238,-0.093724
,,,2022-11-15 14:21:12.736,-0.05523
,,,2022-11-15 14:21:13.236,-0.075314
,,,2022-11-15 14:21:13.736,-0.068619
,,,2022-11-15 14:21:14.236,-0.068619
,,,2022-11-15 14:21:14.737,-0.098745
,,,2022-11-15 14:21:15.237,-0.103766
,,,2022-11-15 14:21:15.736,-0.05523
,,,2022-11-15 14:21:16.236,-0.087029
,,,2022-11-15 14:21:16.736,-0.063598
,,,2022-11-15 14:21:17.235,-0.065272
,,,2022-11-15 14:21:17.735,-0.061925
,,,2022-11-15 14:21:18.235,-0.05523
,,,2022-11-15 14:21:18.735,-0.076987
,,,2022-11-15 14:21:19.235,-0.115481
,,,2022-11-15 14:21:19.735,-0.060251
,,,2022-11-15 14:21:20.235,-0.103766
,,,2022-11-15 14:21:20.734,-0.068619
,,,2022-11-15 14:21:21.235,-0.076987
,,,2022-11-15 14:21:21.735,-0.07364
,,,2022-11-15 14:21:22.235,-0.05523
,,,2022-11-15 14:21:22.736,-0.056904
,,,2022-11-15 14:21:23.235,-0.09205
,,,2022-11-15 14:21:23.735,-0.112134
,,,2022-11-15 14:21:24.235,-0.066946
,,,2022-11-15 14:21:24.736,-0.060251
,,,2022-11-15 14:21:25.236,-0.066946
,,,2022-11-15 14:21:25.736,-0.082008
,,,2022-11-15 14:21:26.236,-0.070293
,,,2022-11-15 14:21:26.737,-0.068619
,,,2022-11-15 14:21:27.237,-0.056904
,,,2022-11-15 14:21:27.737,-0.113808
,,,2022-11-15 14:21:28.238,-0.103766
,,,2022-11-15 14:21:28.738,-0.060251
,,,2022-11-15 14:21:29.238,-0.078661
,,,2022-11-15 14:21:29.737,-0.061925
,,,2022-11-15 14:21:30.237,-0.061925
,,,2022-11-15 14:21:30.738,-0.088703
,,,2022-11-15 14:21:31.238,-0.053556
,,,2022-11-15 14:21:31.739,-0.11046
,,,2022-11-15 14:21:32.238,-0.070293
,,,2022-11-15 14:21:32.737,-0.112134
,,,2022-11-15 14:21:33.238,-0.053556
,,,2022-11-15 14:21:33.737,-0.068619
,,,2022-11-15 14:21:34.238,-0.061925
,,,2022-11-15 14:21:34.737,-0.082008
,,,2022-11-15 14:21:35.236,-0.122176
,,,2022-11-15 14:21:35.737,-0.070293
,,,2022-11-15 14:21:36.237,-0.053556
,,,2022-11-15 14:21:36.736,-0.070293
,,,2022-11-15 14:21:37.236,-0.083682
,,,2022-11-15 14:21:37.736,-0.061925
,,,2022-11-15 14:21:38.236,-0.056904
,,,2022-11-15 14:21:38.736,-0.080335
,,,2022-11-15 14:21:39.238,-0.132218
,,,2022-11-15 14:21:39.738,-0.068619
,,,2022-11-15 14:21:40.238,-0.05523
,,,2022-11-15 14:21:40.737,-0.076987
,,,2022-11-15 14:21:41.237,-0.102092
,,,2022-11-15 14:21:41.738,-0.063598
,,,2022-11-15 14:21:42.238,-0.071967
,,,2022-11-15 14:21:42.738,-0.056904
,,,2022-11-15 14:21:43.237,-0.090377
,,,2022-11-15 14:21:43.737,-0.058577
,,,2022-11-15 14:21:44.237,-0.138912
,,,2022-11-15 14:21:44.737,-0.066946
,,,2022-11-15 14:21:45.238,-0.068619
,,,2022-11-15 14:21:45.736,-0.058577
,,,2022-11-15 14:21:46.237,-0.088703
,,,2022-11-15 14:21:46.738,-0.061925
,,,2022-11-15 14:21:47.236,-0.076987
,,,2022-11-15 14:21:47.737,-0.068619
,,,2022-11-15 14:21:48.236,-0.005021
,,,2022-11-15 14:21:48.736,-0.075314
,,,2022-11-15 14:21:49.238,-0.076987
,,,2022-11-15 14:21:49.738,-0.056904
,,,2022-11-15 14:21:50.238,-0.058577
,,,2022-11-15 14:21:50.736,-0.095397
,,,2022-11-15 14:21:51.236,-0.080335
,,,2022-11-15 14:21:51.736,-0.060251
,,,2022-11-15 14:21:52.237,-0.113808
,,,2022-11-15 14:21:52.738,-0.082008
,,,2022-11-15 14:21:53.237,-0.082008
,,,2022-11-15 14:21:53.738,-0.097071
,,,2022-11-15 14:21:54.237,-0.097071
,,,2022-11-15 14:21:54.737,-0.076987
,,,2022-11-15 14:21:55.237,-0.083682
,,,2022-11-15 14:21:55.737,-0.118828
,,,2022-11-15 14:21:56.237,-0.098745
,,,2022-11-15 14:21:56.737,-0.068619
,,,2022-11-15 14:21:57.238,-0.05523
,,,2022-11-15 14:21:57.737,-0.065272
,,,2022-11-15 14:21:58.237,-0.088703
,,,2022-11-15 14:21:58.737,-0.108787
,,,2022-11-15 14:21:59.237,-0.053556
,,,2022-11-15 14:21:59.737,-0.085356
,,,2022-11-15 14:22:00.237,-0.056904
,,,2022-11-15 14:22:00.737,-0.063598
,,,2022-11-15 14:22:01.237,-0.112134
,,,2022-11-15 14:22:01.738,-0.071967
,,,2022-11-15 14:22:02.237,-0.090377
,,,2022-11-15 14:22:02.737,-0.056904
,,,2022-11-15 14:22:03.237,-0.088703
,,,2022-11-15 14:22:03.736,-0.088703
,,,2022-11-15 14:22:04.237,-0.068619
,,,2022-11-15 14:22:04.738,-0.061925
,,,2022-11-15 14:22:05.237,-0.060251
,,,2022-11-15 14:22:05.738,-0.07364
,,,2022-11-15 14:22:06.237,-0.113808
,,,2022-11-15 14:22:06.737,-0.07364
,,,2022-11-15 14:22:07.237,-0.083682
,,,2022-11-15 14:22:07.737,-0.070293
,,,2022-11-15 14:22:08.237,-0.076987
,,,2022-11-15 14:22:08.737,-0.088703
,,,2022-11-15 14:22:09.238,-0.076987
,,,2022-11-15 14:22:09.736,-0.061925
,,,2022-11-15 14:22:10.237,-0.05523
,,,2022-11-15 14:22:10.737,-0.076987
,,,2022-11-15 14:22:11.238,-0.082008
,,,2022-11-15 14:22:11.737,-0.083682
,,,2022-11-15 14:22:12.236,-0.100418
,,,2022-11-15 14:22:12.736,-0.11046
,,,2022-11-15 14:22:13.236,-0.066946
,,,2022-11-15 14:22:13.736,-0.053556
,,,2022-11-15 14:22:14.236,-0.070293
,,,2022-11-15 14:22:14.736,-0.122176
,,,2022-11-15 14:22:15.237,-0.085356
,,,2022-11-15 14:22:15.737,-0.05523
,,,2022-11-15 14:22:16.238,-0.061925
,,,2022-11-15 14:22:16.738,-0.088703
,,,2022-11-15 14:22:17.237,-0.061925
,,,2022-11-15 14:22:17.738,-0.071967
,,,2022-11-15 14:22:18.237,-0.088703
,,,2022-11-15 14:22:18.739,-0.05523
,,,2022-11-15 14:22:19.238,-0.066946
,,,2022-11-15 14:22:19.738,-0.085356
,,,2022-11-15 14:22:20.238,-0.088703
,,,2022-11-15 14:22:20.739,-0.095397
,,,2022-11-15 14:22:21.237,-0.137238
,,,2022-11-15 14:22:21.738,-0.065272
,,,2022-11-15 14:22:22.238,-0.080335
,,,2022-11-15 14:22:22.736,-0.056904
,,,2022-11-15 14:22:23.237,-0.097071
,,,2022-11-15 14:22:23.738,-0.076987
,,,2022-11-15 14:22:24.238,-0.071967
,,,2022-11-15 14:22:24.738,-0.076987
,,,2022-11-15 14:22:25.237,-0.065272
,,,2022-11-15 14:22:25.738,-0.066946
,,,2022-11-15 14:22:26.237,-0.058577
,,,2022-11-15 14:22:26.737,-0.103766
,,,2022-11-15 14:22:27.238,-0.070293
,,,2022-11-15 14:22:27.737,-0.090377
,,,2022-11-15 14:22:28.238,-0.05523
,,,2022-11-15 14:22:28.736,-0.05523
,,,2022-11-15 14:22:29.236,-0.05523
,,,2022-11-15 14:22:29.738,-0.061925
,,,2022-11-15 14:22:30.239,-0.083682
,,,2022-11-15 14:22:30.738,-0.083682
,,,2022-11-15 14:22:31.238,-0.087029
,,,2022-11-15 14:22:31.737,-0.063598
,,,2022-11-15 14:22:32.237,-0.07364
,,,2022-11-15 14:22:32.737,-0.068619
,,,2022-11-15 14:22:33.238,-0.09205
,,,2022-11-15 14:22:33.738,-0.075314
,,,2022-11-15 14:22:34.238,-0.090377
,,,2022-11-15 14:22:34.737,-0.075314
,,,2022-11-15 14:22:35.238,-0.080335
,,,2022-11-15 14:22:35.737,-0.108787
,,,2022-11-15 14:22:36.238,-0.068619
,,,2022-11-15 14:22:36.738,-0.088703
,,,2022-11-15 14:22:37.237,-0.061925
,,,2022-11-15 14:22:37.738,-0.068619
,,,2022-11-15 14:22:38.236,-0.083682
,,,2022-11-15 14:22:38.736,-0.061925
,,,2022-11-15 14:22:39.237,-0.107113
,,,2022-11-15 14:22:39.737,-0.056904
,,,2022-11-15 14:22:40.237,-0.071967
,,,2022-11-15 14:22:40.737,-0.09205
,,,2022-11-15 14:22:41.236,-0.112134
,,,2022-11-15 14:22:41.736,-0.093724
,,,2022-11-15 14:22:42.237,-0.085356
,,,2022-11-15 14:22:42.738,-0.061925
,,,2022-11-15 14:22:43.238,-0.083682
,,,2022-11-15 14:22:43.738,-0.100418
,,,2022-11-15 14:22:44.237,-0.07364
,,,2022-11-15 14:22:44.736,-0.053556
,,,2022-11-15 14:22:45.236,-0.083682
,,,2022-11-15 14:22:45.737,-0.105439
,,,2022-11-15 14:22:46.236,-0.070293
,,,2022-11-15 14:22:46.737,-0.05523
,,,2022-11-15 14:22:47.237,-0.058577
,,,2022-11-15 14:22:47.737,-0.060251
,,,2022-11-15 14:22:48.238,-0.061925
,,,2022-11-15 14:22:48.737,-0.075314
,,,2022-11-15 14:22:49.237,-0.060251
,,,2022-11-15 14:22:49.738,-0.075314
,,,2022-11-15 14:22:50.237,-0.066946
,,,2022-11-15 14:22:50.737,-0.083682
,,,2022-11-15 14:22:51.238,-0.05523
,,,2022-11-15 14:22:51.736,-0.07364
,,,2022-11-15 14:22:52.237,-0.11046
,,,2022-11-15 14:22:52.737,-0.083682
,,,2022-11-15 14:22:53.237,-0.098745
,,,2022-11-15 14:22:53.736,-0.09205
,,,2022-11-15 14:22:54.236,-0.060251
,,,2022-11-15 14:22:54.736,-0.083682
,,,2022-11-15 14:22:55.236,-0.076987
,,,2022-11-15 14:22:55.737,-0.05523
,,,2022-11-15 14:22:56.237,-0.058577
,,,2022-11-15 14:22:56.736,-0.076987
,,,2022-11-15 14:22:57.236,-0.133891
,,,2022-11-15 14:22:57.736,-0.053556
,,,2022-11-15 14:22:58.236,-0.061925
,,,2022-11-15 14:22:58.736,-0.068619
,,,2022-11-15 14:22:59.237,-0.09205
,,,2022-11-15 14:22:59.737,-0.087029
,,,2022-11-15 14:23:00.237,-0.070293
,,,2022-11-15 14:23:00.737,-0.097071
,,,2022-11-15 14:23:01.237,-0.068619
,,,2022-11-15 14:23:01.737,-0.083682
,,,2022-11-15 14:23:02.237,-0.053556
,,,2022-11-15 14:23:02.737,-0.068619
,,,2022-11-15 14:23:03.237,-0.113808
,,,2022-11-15 14:23:03.736,-0.085356
,,,2022-11-15 14:23:04.236,-0.085356
,,,2022-11-15 14:23:04.736,-0.070293
,,,2022-11-15 14:23:05.237,-0.011715
,,,2022-11-15 14:23:05.737,-0.088703
,,,2022-11-15 14:23:06.237,-0.07364
,,,2022-11-15 14:23:06.739,-0.076987
,,,2022-11-15 14:23:07.238,-0.078661
,,,2022-11-15 14:23:07.738,-0.125523
,,,2022-11-15 14:23:08.236,-0.090377
,,,2022-11-15 14:23:08.736,-0.068619
,,,2022-11-15 14:23:09.237,-0.080335
,,,2022-11-15 14:23:09.738,-0.083682
,,,2022-11-15 14:23:10.237,-0.063598
,,,2022-11-15 14:23:10.737,-0.068619
,,,2022-11-15 14:23:11.238,-0.12887
,,,2022-11-15 14:23:11.737,-0.063598
,,,2022-11-15 14:23:12.238,-0.09205
,,,2022-11-15 14:23:12.738,-0.090377
,,,2022-11-15 14:23:13.239,-0.098745
,,,2022-11-15 14:23:13.740,-0.068619
,,,2022-11-15 14:23:14.238,-0.05523
,,,2022-11-15 14:23:14.737,-0.071967
,,,2022-11-15 14:23:15.237,-0.05523
,,,2022-11-15 14:23:15.738,-0.122176
,,,2022-11-15 14:23:16.238,-0.112134
,,,2022-11-15 14:23:16.737,-0.05523
,,,2022-11-15 14:23:17.238,-0.068619
,,,2022-11-15 14:23:17.737,-0.120502
,,,2022-11-15 14:23:18.238,-0.063598
,,,2022-11-15 14:23:18.738,-0.088703
,,,2022-11-15 14:23:19.237,-0.068619
,,,2022-11-15 14:23:19.737,-0.085356
,,,2022-11-15 14:23:20.238,-0.061925
,,,2022-11-15 14:23:20.738,-0.09205
,,,2022-11-15 14:23:21.237,-0.105439
,,,2022-11-15 14:23:21.737,-0.058577
,,,2022-11-15 14:23:22.237,-0.078661
,,,2022-11-15 14:23:22.737,-0.060251
,,,2022-11-15 14:23:23.237,-0.066946
,,,2022-11-15 14:23:23.737,-0.063598
,,,2022-11-15 14:23:24.237,-0.120502
,,,2022-11-15 14:23:24.738,-0.080335
,,,2022-11-15 14:23:25.238,-0.112134
,,,2022-11-15 14:23:25.737,-0.090377
,,,2022-11-15 14:23:26.238,-0.063598
,,,2022-11-15 14:23:26.737,-0.061925
,,,2022-11-15 14:23:27.237,-0.080335
,,,2022-11-15 14:23:27.737,-0.063598
,,,2022-11-15 14:23:28.237,-0.083682
,,,2022-11-15 14:23:28.737,-0.082008
,,,2022-11-15 14:23:29.238,-0.085356
,,,2022-11-15 14:23:29.736,-0.083682
,,,2022-11-15 14:23:30.237,-0.07364
,,,2022-11-15 14:23:30.738,-0.095397
,,,2022-11-15 14:23:31.237,-0.053556
,,,2022-11-15 14:23:31.737,-0.078661
,,,2022-11-15 14:23:32.237,-0.070293
,,,2022-11-15 14:23:32.736,-0.103766
,,,2022-11-15 14:23:33.237,-0.078661
,,,2022-11-15 14:23:33.737,-0.063598
,,,2022-11-15 14:23:34.237,-0.063598
,,,2022-11-15 14:23:34.738,-0.090377
,,,2022-11-15 14:23:35.237,-0.102092
,,,2022-11-15 14:23:35.737,-0.078661
,,,2022-11-15 14:23:36.237,-0.138912
,,,2022-11-15 14:23:36.738,-0.076987
,,,2022-11-15 14:23:37.236,-0.083682
,,,2022-11-15 14:23:37.737,-0.05523
,,,2022-11-15 14:23:38.237,-0.120502
,,,2022-11-15 14:23:38.737,-0.066946
,,,2022-11-15 14:23:39.237,-0.060251
,,,2022-11-15 14:23:39.737,-0.063598
,,,2022-11-15 14:23:40.237,-0.053556
,,,2022-11-15 14:23:40.738,-0.07364
,,,2022-11-15 14:23:41.238,-0.053556
,,,2022-11-15 14:23:41.736,-0.133891
,,,2022-11-15 14:23:42.235,-0.115481
,,,2022-11-15 14:23:42.735,-0.087029
,,,2022-11-15 14:23:43.236,-0.123849
,,,2022-11-15 14:23:43.736,-0.063598
,,,2022-11-15 14:23:44.236,-0.060251
,,,2022-11-15 14:23:44.737,-0.053556
,,,2022-11-15 14:23:45.238,-0.076987
,,,2022-11-15 14:23:45.737,-0.107113
,,,2022-11-15 14:23:46.236,-0.095397
,,,2022-11-15 14:23:46.736,-0.095397
,,,2022-11-15 14:23:47.236,-0.087029
,,,2022-11-15 14:23:47.736,-0.082008
,,,2022-11-15 14:23:48.237,-0.117155
,,,2022-11-15 14:23:48.738,-0.061925
,,,2022-11-15 14:23:49.238,-0.071967
,,,2022-11-15 14:23:49.737,-0.05523
,,,2022-11-15 14:23:50.237,-0.076987
,,,2022-11-15 14:23:50.736,-0.05523
,,,2022-11-15 14:23:51.237,-0.103766
,,,2022-11-15 14:23:51.738,-0.107113
,,,2022-11-15 14:23:52.236,-0.060251
,,,2022-11-15 14:23:52.736,-0.006695
,,,2022-11-15 14:23:53.236,-0.120502
,,,2022-11-15 14:23:53.736,-0.058577
,,,2022-11-15 14:23:54.236,-0.071967
,,,2022-11-15 14:23:54.737,-0.070293
,,,2022-11-15 14:23:55.237,-0.068619
,,,2022-11-15 14:23:55.738,-0.105439
,,,2022-11-15 14:23:56.237,-0.127197
,,,2022-11-15 14:23:56.737,-0.120502
,,,2022-11-15 14:23:57.237,-0.105439
,,,2022-11-15 14:23:57.738,-0.113808
,,,2022-11-15 14:23:58.238,-0.066946
,,,2022-11-15 14:23:58.736,-0.058577
,,,2022-11-15 14:23:59.238,-0.132218
,,,2022-11-15 14:23:59.738,-0.060251
,,,2022-11-15 14:24:00.238,-0.060251
,,,2022-11-15 14:24:00.737,-0.100418
,,,2022-11-15 14:24:01.238,-0.100418
,,,2022-11-15 14:24:01.737,-0.09205
,,,2022-11-15 14:24:02.238,-0.087029
,,,2022-11-15 14:24:02.737,-0.113808
,,,2022-11-15 14:24:03.237,-0.103766
,,,2022-11-15 14:24:03.738,-0.112134
,,,2022-11-15 14:24:04.237,-0.082008
,,,2022-11-15 14:24:04.737,-0.09205
,,,2022-11-15 14:24:05.237,-0.090377
,,,2022-11-15 14:24:05.738,-0.07364
,,,2022-11-15 14:24:06.238,-0.085356
,,,2022-11-15 14:24:06.738,-0.061925
,,,2022-11-15 14:24:07.237,-0.05523
,,,2022-11-15 14:24:07.737,-0.083682
,,,2022-11-15 14:24:08.238,-0.060251
,,,2022-11-15 14:24:08.738,-0.061925
,,,2022-11-15 14:24:09.238,-0.122176
,,,2022-11-15 14:24:09.737,-0.061925
,,,2022-11-15 14:24:10.237,-0.132218
,,,2022-11-15 14:24:10.737,-0.061925
,,,2022-11-15 14:24:11.238,-0.066946
,,,2022-11-15 14:24:11.738,-0.071967
,,,2022-11-15 14:24:12.238,-0.068619
,,,2022-11-15 14:24:12.737,-0.075314
,,,2022-11-15 14:24:13.236,-0.112134
,,,2022-11-15 14:24:13.737,-0.076987
,,,2022-11-15 14:24:14.238,-0.070293
,,,2022-11-15 14:24:14.737,-0.112134
,,,2022-11-15 14:24:15.238,-0.076987
,,,2022-11-15 14:24:15.737,-0.098745
,,,2022-11-15 14:24:16.237,-0.056904
,,,2022-11-15 14:24:16.737,-0.113808
,,,2022-11-15 14:24:17.238,-0.05523
,,,2022-11-15 14:24:17.737,-0.05523
,,,2022-11-15 14:24:18.238,-0.076987
,,,2022-11-15 14:24:18.737,-0.063598
,,,2022-11-15 14:24:19.237,-0.105439
,,,2022-11-15 14:24:19.737,-0.076987
,,,2022-11-15 14:24:20.237,-0.082008
,,,2022-11-15 14:24:20.736,-0.082008
,,,2022-11-15 14:24:21.237,-0.085356
,,,2022-11-15 14:24:21.738,-0.076987
,,,2022-11-15 14:24:22.238,-0.07364
,,,2022-11-15 14:24:22.736,-0.068619
,,,2022-11-15 14:24:23.236,-0.070293
,,,2022-11-15 14:24:23.736,-0.098745
,,,2022-11-15 14:24:24.236,-0.080335
,,,2022-11-15 14:24:24.737,-0.082008
,,,2022-11-15 14:24:25.237,-0.070293
,,,2022-11-15 14:24:25.736,-0.068619
,,,2022-11-15 14:24:26.236,-0.07364
,,,2022-11-15 14:24:26.737,-0.053556
,,,2022-11-15 14:24:27.238,-0.082008
,,,2022-11-15 14:24:27.737,-0.011715
,,,2022-11-15 14:24:28.236,-0.11046
,,,2022-11-15 14:24:28.737,-0.100418
,,,2022-11-15 14:24:29.236,-0.09205
,,,2022-11-15 14:24:29.736,-0.085356
,,,2022-11-15 14:24:30.237,-0.078661
,,,2022-11-15 14:24:30.737,-0.061925
,,,2022-11-15 14:24:31.239,-0.060251
,,,2022-11-15 14:24:31.738,-0.061925
,,,2022-11-15 14:24:32.237,-0.085356
,,,2022-11-15 14:24:32.737,-0.082008
,,,2022-11-15 14:24:33.237,-0.05523
,,,2022-11-15 14:24:33.736,-0.061925
,,,2022-11-15 14:24:34.237,-0.095397
,,,2022-11-15 14:24:34.737,-0.056904
,,,2022-11-15 14:24:35.237,-0.075314
,,,2022-11-15 14:24:35.738,-0.117155
,,,2022-11-15 14:24:36.238,-0.056904
,,,2022-11-15 14:24:36.737,-0.061925
,,,2022-11-15 14:24:37.238,-0.068619
,,,2022-11-15 14:24:37.737,-0.087029
,,,2022-11-15 14:24:38.238,-0.075314
,,,2022-11-15 14:24:38.737,-0.120502
,,,2022-11-15 14:24:39.238,-0.100418
,,,2022-11-15 14:24:39.739,-0.05523
,,,2022-11-15 14:24:40.237,-0.061925
,,,2022-11-15 14:24:40.737,-0.076987
,,,2022-11-15 14:24:41.237,-0.076987
,,,2022-11-15 14:24:41.737,-0.075314
,,,2022-11-15 14:24:42.237,-0.05523
,,,2022-11-15 14:24:42.737,-0.105439
,,,2022-11-15 14:24:43.237,-0.108787
,,,2022-11-15 14:24:43.738,-0.05523
,,,2022-11-15 14:24:44.238,-0.061925
,,,2022-11-15 14:24:44.737,-0.05523
,,,2022-11-15 14:24:45.237,-0.058577
,,,2022-11-15 14:24:45.737,-0.09205
,,,2022-11-15 14:24:46.236,-0.05523
,,,2022-11-15 14:24:46.737,-0.061925
,,,2022-11-15 14:24:47.237,-0.068619
,,,2022-11-15 14:24:47.739,-0.075314
,,,2022-11-15 14:24:48.239,-0.085356
,,,2022-11-15 14:24:48.738,-0.05523
,,,2022-11-15 14:24:49.238,-0.075314
,,,2022-11-15 14:24:49.738,-0.075314
,,,2022-11-15 14:24:50.238,-0.098745
,,,2022-11-15 14:24:50.738,-0.076987
,,,2022-11-15 14:24:51.238,-0.068619
,,,2022-11-15 14:24:51.737,-0.061925
,,,2022-11-15 14:24:52.237,-0.102092
,,,2022-11-15 14:24:52.738,-0.164017
,,,2022-11-15 14:24:53.237,-0.085356
,,,2022-11-15 14:24:53.738,-0.097071
,,,2022-11-15 14:24:54.238,-0.097071
,,,2022-11-15 14:24:54.737,-0.123849
,,,2022-11-15 14:24:55.236,-0.076987
,,,2022-11-15 14:24:55.737,-0.070293
,,,2022-11-15 14:24:56.238,-0.063598
,,,2022-11-15 14:24:56.738,-0.09205
,,,2022-11-15 14:24:57.238,-0.085356
,,,2022-11-15 14:24:57.737,-0.11046
,,,2022-11-15 14:24:58.236,-0.088703
,,,2022-11-15 14:24:58.737,-0.083682
,,,2022-11-15 14:24:59.238,-0.093724
,,,2022-11-15 14:24:59.738,-0.09205
,,,2022-11-15 14:25:00.238,-0.070293
,,,2022-11-15 14:25:00.737,-0.083682
,,,2022-11-15 14:25:01.237,-0.070293
,,,2022-11-15 14:25:01.738,-0.120502
,,,2022-11-15 14:25:02.237,-0.053556
,,,2022-11-15 14:25:02.737,-0.068619
,,,2022-11-15 14:25:03.239,-0.078661
,,,2022-11-15 14:25:03.737,-0.112134
,,,2022-11-15 14:25:04.237,-0.066946
,,,2022-11-15 14:25:04.738,-0.076987
,,,2022-11-15 14:25:05.237,-0.088703
,,,2022-11-15 14:25:05.738,-0.053556
,,,2022-11-15 14:25:06.238,-0.053556
,,,2022-11-15 14:25:06.737,-0.068619
,,,2022-11-15 14:25:07.238,-0.071967
,,,2022-11-15 14:25:07.737,-0.093724
,,,2022-11-15 14:25:08.238,-0.05523
,,,2022-11-15 14:25:08.737,-0.102092
,,,2022-11-15 14:25:09.238,-0.066946
,,,2022-11-15 14:25:09.737,-0.061925
,,,2022-11-15 14:25:10.237,-0.05523
,,,2022-11-15 14:25:10.737,-0.063598
,,,2022-11-15 14:25:11.236,-0.061925
,,,2022-11-15 14:25:11.736,-0.05523
,,,2022-11-15 14:25:12.236,-0.087029
,,,2022-11-15 14:25:12.737,-0.071967
,,,2022-11-15 14:25:13.238,-0.118828
,,,2022-11-15 14:25:13.738,-0.083682
,,,2022-11-15 14:25:14.236,-0.060251
,,,2022-11-15 14:25:14.736,-0.098745
,,,2022-11-15 14:25:15.236,-0.060251
,,,2022-11-15 14:25:15.736,-0.061925
,,,2022-11-15 14:25:16.236,-0.100418
,,,2022-11-15 14:25:16.737,-0.070293
,,,2022-11-15 14:25:17.238,-0.070293
,,,2022-11-15 14:25:17.737,-0.071967
,,,2022-11-15 14:25:18.238,-0.066946
,,,2022-11-15 14:25:18.736,-0.078661
,,,2022-11-15 14:25:19.236,-0.108787
,,,2022-11-15 14:25:19.737,-0.065272
,,,2022-11-15 14:25:20.238,-0.076987
,,,2022-11-15 14:25:20.737,-0.065272
,,,2022-11-15 14:25:21.239,-0.098745
,,,2022-11-15 14:25:21.737,-0.05523
,,,2022-11-15 14:25:22.237,-0.083682
,,,2022-11-15 14:25:22.737,-0.098745
,,,2022-11-15 14:25:23.237,-0.083682
,,,2022-11-15 14:25:23.737,-0.087029
,,,2022-11-15 14:25:24.237,-0.068619
,,,2022-11-15 14:25:24.737,-0.065272
,,,2022-11-15 14:25:25.236,-0.076987
,,,2022-11-15 14:25:25.736,-0.107113
,,,2022-11-15 14:25:26.237,-0.006695
,,,2022-11-15 14:25:26.737,-0.107113
,,,2022-11-15 14:25:27.239,-0.068619
,,,2022-11-15 14:25:27.737,-0.076987
,,,2022-11-15 14:25:28.237,-0.068619
,,,2022-11-15 14:25:28.737,-0.083682
,,,2022-11-15 14:25:29.237,-0.076987
,,,2022-11-15 14:25:29.737,-0.060251
,,,2022-11-15 14:25:30.237,-0.09205
,,,2022-11-15 14:25:30.737,-0.056904
,,,2022-11-15 14:25:31.237,-0.080335
,,,2022-11-15 14:25:31.737,-0.075314
,,,2022-11-15 14:25:32.237,-0.093724
,,,2022-11-15 14:25:32.738,-0.065272
,,,2022-11-15 14:25:33.239,-0.053556
,,,2022-11-15 14:25:33.737,-0.087029
,,,2022-11-15 14:25:34.237,-0.066946
,,,2022-11-15 14:25:34.737,-0.065272
,,,2022-11-15 14:25:35.237,-0.061925
,,,2022-11-15 14:25:35.737,-0.075314
,,,2022-11-15 14:25:36.237,-0.083682
,,,2022-11-15 14:25:36.737,-0.05523
,,,2022-11-15 14:25:37.237,-0.127197
,,,2022-11-15 14:25:37.737,-0.05523
,,,2022-11-15 14:25:38.236,-0.061925
,,,2022-11-15 14:25:38.736,-0.078661
,,,2022-11-15 14:25:39.236,-0.05523
,,,2022-11-15 14:25:39.738,-0.100418
,,,2022-11-15 14:25:40.238,-0.063598
,,,2022-11-15 14:25:40.739,-0.100418
,,,2022-11-15 14:25:41.238,-0.068619
,,,2022-11-15 14:25:41.739,-0.061925
,,,2022-11-15 14:25:42.237,-0.075314
,,,2022-11-15 14:25:42.738,-0.080335
,,,2022-11-15 14:25:43.238,-0.061925
,,,2022-11-15 14:25:43.737,-0.060251
,,,2022-11-15 14:25:44.237,-0.060251
,,,2022-11-15 14:25:44.738,-0.097071
,,,2022-11-15 14:25:45.239,-0.07364
,,,2022-11-15 14:25:45.737,-0.07364
,,,2022-11-15 14:25:46.237,-0.098745
,,,2022-11-15 14:25:46.738,-0.083682
,,,2022-11-15 14:25:47.238,-0.090377
,,,2022-11-15 14:25:47.738,-0.090377
,,,2022-11-15 14:25:48.238,-0.058577
,,,2022-11-15 14:25:48.737,-0.088703
,,,2022-11-15 14:25:49.238,-0.068619
,,,2022-11-15 14:25:49.737,-0.145607
,,,2022-11-15 14:25:50.238,-0.103766
,,,2022-11-15 14:25:50.737,-0.060251
,,,2022-11-15 14:25:51.238,-0.100418
,,,2022-11-15 14:25:51.737,-0.05523
,,,2022-11-15 14:25:52.238,-0.066946
,,,2022-11-15 14:25:52.737,-0.075314
,,,2022-11-15 14:25:53.238,-0.068619
,,,2022-11-15 14:25:53.738,-0.083682
,,,2022-11-15 14:25:54.238,-0.075314
,,,2022-11-15 14:25:54.737,-0.070293
,,,2022-11-15 14:25:55.237,-0.060251
,,,2022-11-15 14:25:55.738,-0.063598
,,,2022-11-15 14:25:56.237,-0.070293
,,,2022-11-15 14:25:56.737,-0.063598
,,,2022-11-15 14:25:57.238,-0.05523
,,,2022-11-15 14:25:57.738,-0.066946
,,,2022-11-15 14:25:58.237,-0.066946
,,,2022-11-15 14:25:58.737,-0.068619
,,,2022-11-15 14:25:59.238,-0.083682
,,,2022-11-15 14:25:59.738,-0.05523
,,,2022-11-15 14:26:00.237,-0.085356
,,,2022-11-15 14:26:00.737,-0.090377
,,,2022-11-15 14:26:01.238,-0.075314
,,,2022-11-15 14:26:01.737,-0.066946
,,,2022-11-15 14:26:02.236,-0.097071
,,,2022-11-15 14:26:02.737,-0.132218
,,,2022-11-15 14:26:03.238,-0.082008
,,,2022-11-15 14:26:03.738,-0.056904
,,,2022-11-15 14:26:04.237,-0.083682
,,,2022-11-15 14:26:04.737,-0.105439
,,,2022-11-15 14:26:05.237,-0.060251
,,,2022-11-15 14:26:05.737,-0.082008
,,,2022-11-15 14:26:06.238,-0.075314
,,,2022-11-15 14:26:06.738,-0.078661
,,,2022-11-15 14:26:07.237,-0.053556
,,,2022-11-15 14:26:07.737,-0.102092
,,,2022-11-15 14:26:08.237,-0.068619
,,,2022-11-15 14:26:08.737,-0.11046
,,,2022-11-15 14:26:09.238,-0.105439
,,,2022-11-15 14:26:09.737,-0.085356
,,,2022-11-15 14:26:10.237,-0.075314
,,,2022-11-15 14:26:10.737,-0.070293
,,,2022-11-15 14:26:11.237,-0.065272
,,,2022-11-15 14:26:11.738,-0.087029
,,,2022-11-15 14:26:12.237,-0.083682
,,,2022-11-15 14:26:12.738,-0.070293
,,,2022-11-15 14:26:13.236,-0.063598
,,,2022-11-15 14:26:13.737,-0.097071
,,,2022-11-15 14:26:14.238,-0.083682
,,,2022-11-15 14:26:14.738,-0.082008
,,,2022-11-15 14:26:15.237,-0.132218
,,,2022-11-15 14:26:15.738,-0.113808
,,,2022-11-15 14:26:16.236,-0.068619
,,,2022-11-15 14:26:16.736,-0.05523
,,,2022-11-15 14:26:17.237,-0.118828
,,,2022-11-15 14:26:17.736,-0.095397
,,,2022-11-15 14:26:18.236,-0.060251
,,,2022-11-15 14:26:18.736,-0.066946
,,,2022-11-15 14:26:19.236,-0.061925
,,,2022-11-15 14:26:19.737,-0.107113
,,,2022-11-15 14:26:20.237,-0.065272
,,,2022-11-15 14:26:20.737,-0.056904
,,,2022-11-15 14:26:21.237,-0.068619
,,,2022-11-15 14:26:21.736,-0.100418
,,,2022-11-15 14:26:22.236,-0.053556
,,,2022-11-15 14:26:22.736,-0.060251
,,,2022-11-15 14:26:23.236,-0.123849
,,,2022-11-15 14:26:23.736,-0.065272
,,,2022-11-15 14:26:24.237,-0.063598
,,,2022-11-15 14:26:24.738,-0.070293
,,,2022-11-15 14:26:25.238,-0.061925
,,,2022-11-15 14:26:25.737,-0.070293
,,,2022-11-15 14:26:26.237,-0.095397
,,,2022-11-15 14:26:26.737,-0.058577
,,,2022-11-15 14:26:27.237,-0.082008
,,,2022-11-15 14:26:27.737,-0.098745
,,,2022-11-15 14:26:28.237,-0.125523
,,,2022-11-15 14:26:28.739,-0.107113
,,,2022-11-15 14:26:29.239,-0.068619
,,,2022-11-15 14:26:29.739,-0.117155
,,,2022-11-15 14:26:30.238,-0.068619
,,,2022-11-15 14:26:30.738,-0.061925
,,,2022-11-15 14:26:31.238,-0.075314
,,,2022-11-15 14:26:31.736,-0.076987
,,,2022-11-15 14:26:32.237,-0.060251
,,,2022-11-15 14:26:32.738,-0.120502
,,,2022-11-15 14:26:33.238,-0.068619
,,,2022-11-15 14:26:33.738,-0.078661
,,,2022-11-15 14:26:34.238,-0.140586
,,,2022-11-15 14:26:34.736,-0.097071
,,,2022-11-15 14:26:35.237,-0.068619
,,,2022-11-15 14:26:35.737,-0.097071
,,,2022-11-15 14:26:36.236,-0.076987
,,,2022-11-15 14:26:36.736,-0.103766
,,,2022-11-15 14:26:37.236,-0.070293
,,,2022-11-15 14:26:37.737,-0.103766
,,,2022-11-15 14:26:38.238,-0.125523
,,,2022-11-15 14:26:38.736,-0.105439
,,,2022-11-15 14:26:39.236,-0.088703
,,,2022-11-15 14:26:39.737,-0.056904
,,,2022-11-15 14:26:40.238,-0.061925
,,,2022-11-15 14:26:40.738,-0.068619
,,,2022-11-15 14:26:41.238,-0.090377
,,,2022-11-15 14:26:41.738,-0.107113
,,,2022-11-15 14:26:42.237,-0.056904
,,,2022-11-15 14:26:42.737,-0.076987
,,,2022-11-15 14:26:43.237,-0.082008
,,,2022-11-15 14:26:43.738,-0.088703
,,,2022-11-15 14:26:44.237,-0.078661
,,,2022-11-15 14:26:44.738,-0.090377
,,,2022-11-15 14:26:45.237,-0.075314
,,,2022-11-15 14:26:45.738,-0.060251
,,,2022-11-15 14:26:46.237,-0.112134
,,,2022-11-15 14:26:46.738,-0.100418
,,,2022-11-15 14:26:47.238,-0.09205
,,,2022-11-15 14:26:47.737,-0.075314
,,,2022-11-15 14:26:48.236,-0.11046
,,,2022-11-15 14:26:48.737,-0.090377
,,,2022-11-15 14:26:49.238,-0.070293
,,,2022-11-15 14:26:49.737,-0.102092
,,,2022-11-15 14:26:50.237,-0.05523
,,,2022-11-15 14:26:50.738,-0.090377
,,,2022-11-15 14:26:51.238,-0.11046
,,,2022-11-15 14:26:51.736,-0.105439
,,,2022-11-15 14:26:52.237,-0.07364
,,,2022-11-15 14:26:52.738,-0.05523
,,,2022-11-15 14:26:53.237,-0.063598
,,,2022-11-15 14:26:53.737,-0.080335
,,,2022-11-15 14:26:54.236,-0.082008
,,,2022-11-15 14:26:54.736,-0.105439
,,,2022-11-15 14:26:55.237,-0.102092
,,,2022-11-15 14:26:55.737,-0.076987
,,,2022-11-15 14:26:56.239,-0.068619
,,,2022-11-15 14:26:56.737,-0.058577
,,,2022-11-15 14:26:57.238,-0.122176
,,,2022-11-15 14:26:57.737,-0.068619
,,,2022-11-15 14:26:58.238,-0.05523
,,,2022-11-15 14:26:58.737,-0.076987
,,,2022-11-15 14:26:59.237,-0.063598
,,,2022-11-15 14:26:59.736,-0.061925
,,,2022-11-15 14:27:00.236,-0.108787
,,,2022-11-15 14:27:00.737,-0.068619
,,,2022-11-15 14:27:01.237,-0.060251
,,,2022-11-15 14:27:01.737,-0.060251
,,,2022-11-15 14:27:02.236,-0.05523
,,,2022-11-15 14:27:02.736,-0.082008
,,,2022-11-15 14:27:03.237,-0.053556
,,,2022-11-15 14:27:03.736,-0.053556
,,,2022-11-15 14:27:04.237,-0.098745
,,,2022-11-15 14:27:04.738,-0.056904
,,,2022-11-15 14:27:05.237,-0.053556
,,,2022-11-15 14:27:05.737,-0.103766
,,,2022-11-15 14:27:06.236,-0.058577
,,,2022-11-15 14:27:06.737,-0.056904
,,,2022-11-15 14:27:07.237,-0.088703
,,,2022-11-15 14:27:07.736,-0.097071
,,,2022-11-15 14:27:08.237,-0.118828
,,,2022-11-15 14:27:08.738,-0.065272
,,,2022-11-15 14:27:09.237,-0.113808
,,,2022-11-15 14:27:09.737,-0.07364
,,,2022-11-15 14:27:10.237,-0.070293
,,,2022-11-15 14:27:10.737,-0.056904
,,,2022-11-15 14:27:11.237,-0.068619
,,,2022-11-15 14:27:11.738,-0.071967
,,,2022-11-15 14:27:12.237,-0.061925
,,,2022-11-15 14:27:12.737,-0.070293
,,,2022-11-15 14:27:13.238,-0.083682
,,,2022-11-15 14:27:13.737,-0.112134
,,,2022-11-15 14:27:14.236,-0.078661
,,,2022-11-15 14:27:14.735,-0.068619
,,,2022-11-15 14:27:15.234,-0.118828
,,,2022-11-15 14:27:15.734,-0.061925
,,,2022-11-15 14:27:16.234,-0.060251
,,,2022-11-15 14:27:16.734,-0.006695
,,,2022-11-15 14:27:17.234,-0.05523
,,,2022-11-15 14:27:17.734,-0.132218
,,,2022-11-15 14:27:18.233,-0.061925
,,,2022-11-15 14:27:18.734,-0.05523
,,,2022-11-15 14:27:19.234,-0.061925
,,,2022-11-15 14:27:19.736,-0.075314
,,,2022-11-15 14:27:20.236,-0.065272
,,,2022-11-15 14:27:20.737,-0.068619
,,,2022-11-15 14:27:21.238,-0.061925
,,,2022-11-15 14:27:21.739,-0.056904
,,,2022-11-15 14:27:22.238,-0.085356
,,,2022-11-15 14:27:22.738,-0.088703
,,,2022-11-15 14:27:23.239,-0.11046
,,,2022-11-15 14:27:23.738,-0.05523
,,,2022-11-15 14:27:24.238,-0.060251
,,,2022-11-15 14:27:24.737,-0.056904
,,,2022-11-15 14:27:25.238,-0.066946
,,,2022-11-15 14:27:25.738,-0.075314
,,,2022-11-15 14:27:26.237,-0.087029
,,,2022-11-15 14:27:26.737,-0.088703
,,,2022-11-15 14:27:27.236,-0.05523
,,,2022-11-15 14:27:27.738,-0.097071
,,,2022-11-15 14:27:28.238,-0.076987
,,,2022-11-15 14:27:28.739,-0.070293
,,,2022-11-15 14:27:29.238,-0.11046
,,,2022-11-15 14:27:29.738,-0.105439
,,,2022-11-15 14:27:30.238,-0.066946
,,,2022-11-15 14:27:30.737,-0.076987
,,,2022-11-15 14:27:31.238,-0.083682
,,,2022-11-15 14:27:31.737,-0.060251
,,,2022-11-15 14:27:32.237,-0.070293
,,,2022-11-15 14:27:32.737,-0.090377
,,,2022-11-15 14:27:33.238,-0.060251
,,,2022-11-15 14:27:33.737,-0.090377
,,,2022-11-15 14:27:34.238,-0.075314
,,,2022-11-15 14:27:34.737,-0.095397
,,,2022-11-15 14:27:35.238,-0.080335
,,,2022-11-15 14:27:35.739,-0.07364
,,,2022-11-15 14:27:36.238,-0.060251
,,,2022-11-15 14:27:36.737,-0.07364
,,,2022-11-15 14:27:37.237,-0.060251
,,,2022-11-15 14:27:37.737,-0.097071
,,,2022-11-15 14:27:38.237,-0.060251
,,,2022-11-15 14:27:38.737,-0.060251
,,,2022-11-15 14:27:39.237,-0.097071
,,,2022-11-15 14:27:39.737,-0.063598
,,,2022-11-15 14:27:40.237,-0.066946
,,,2022-11-15 14:27:40.737,-0.060251
,,,2022-11-15 14:27:41.238,-0.098745
,,,2022-11-15 14:27:41.737,-0.075314
,,,2022-11-15 14:27:42.237,-0.083682
,,,2022-11-15 14:27:42.738,-0.060251
,,,2022-11-15 14:27:43.236,-0.097071
,,,2022-11-15 14:27:43.737,-0.05523
,,,2022-11-15 14:27:44.237,-0.125523
,,,2022-11-15 14:27:44.738,-0.05523
,,,2022-11-15 14:27:45.238,-0.112134
,,,2022-11-15 14:27:45.737,-0.090377
,,,2022-11-15 14:27:46.238,-0.063598
,,,2022-11-15 14:27:46.738,-0.076987
,,,2022-11-15 14:27:47.238,-0.100418
,,,2022-11-15 14:27:47.736,-0.080335
,,,2022-11-15 14:27:48.236,-0.098745
,,,2022-11-15 14:27:48.736,-0.060251
,,,2022-11-15 14:27:49.237,-0.061925
,,,2022-11-15 14:27:49.737,-0.063598
,,,2022-11-15 14:27:50.238,-0.053556
,,,2022-11-15 14:27:50.736,-0.080335
,,,2022-11-15 14:27:51.238,-0.076987
,,,2022-11-15 14:27:51.737,-0.105439
,,,2022-11-15 14:27:52.237,-0.070293
,,,2022-11-15 14:27:52.736,-0.075314
,,,2022-11-15 14:27:53.237,-0.051883
,,,2022-11-15 14:27:53.736,-0.108787
,,,2022-11-15 14:27:54.237,-0.103766
,,,2022-11-15 14:27:54.737,-0.05523
,,,2022-11-15 14:27:55.238,-0.068619
,,,2022-11-15 14:27:55.738,-0.108787
,,,2022-11-15 14:27:56.237,-0.075314
,,,2022-11-15 14:27:56.737,-0.068619
,,,2022-11-15 14:27:57.237,-0.065272
,,,2022-11-15 14:27:57.736,-0.088703
,,,2022-11-15 14:27:58.236,-0.100418
,,,2022-11-15 14:27:58.737,-0.053556
,,,2022-11-15 14:27:59.238,-0.085356
,,,2022-11-15 14:27:59.737,-0.127197
,,,2022-11-15 14:28:00.236,-0.09205
,,,2022-11-15 14:28:00.736,-0.076987
,,,2022-11-15 14:28:01.236,-0.090377
,,,2022-11-15 14:28:01.735,-0.075314
,,,2022-11-15 14:28:02.236,-0.053556
,,,2022-11-15 14:28:02.736,-0.097071
,,,2022-11-15 14:28:03.237,-0.060251
,,,2022-11-15 14:28:03.737,-0.068619
,,,2022-11-15 14:28:04.237,-0.066946
,,,2022-11-15 14:28:04.737,-0.063598
,,,2022-11-15 14:28:05.237,-0.063598
,,,2022-11-15 14:28:05.737,-0.053556
,,,2022-11-15 14:28:06.237,-0.118828
,,,2022-11-15 14:28:06.737,-0.063598
,,,2022-11-15 14:28:07.236,-0.063598
,,,2022-11-15 14:28:07.736,-0.105439
,,,2022-11-15 14:28:08.236,-0.105439
,,,2022-11-15 14:28:08.737,-0.066946
,,,2022-11-15 14:28:09.237,-0.102092
,,,2022-11-15 14:28:09.737,-0.070293
,,,2022-11-15 14:28:10.237,-0.102092
,,,2022-11-15 14:28:10.739,-0.103766
,,,2022-11-15 14:28:11.238,-0.076987
,,,2022-11-15 14:28:11.738,-0.083682
,,,2022-11-15 14:28:12.238,-0.05523
,,,2022-11-15 14:28:12.737,-0.066946
,,,2022-11-15 14:28:13.238,-0.080335
,,,2022-11-15 14:28:13.738,-0.098745
,,,2022-11-15 14:28:14.238,-0.075314
,,,2022-11-15 14:28:14.737,-0.063598
,,,2022-11-15 14:28:15.238,-0.008368
,,,2022-11-15 14:28:15.737,-0.075314
,,,2022-11-15 14:28:16.239,-0.053556
,,,2022-11-15 14:28:16.738,-0.090377
,,,2022-11-15 14:28:17.237,-0.061925
,,,2022-11-15 14:28:17.737,-0.061925
,,,2022-11-15 14:28:18.239,-0.127197
,,,2022-11-15 14:28:18.738,-0.060251
,,,2022-11-15 14:28:19.237,-0.083682
,,,2022-11-15 14:28:19.738,-0.097071
,,,2022-11-15 14:28:20.239,-0.063598
,,,2022-11-15 14:28:20.737,-0.083682
,,,2022-11-15 14:28:21.237,-0.090377
,,,2022-11-15 14:28:21.738,-0.082008
,,,2022-11-15 14:28:22.238,-0.102092
,,,2022-11-15 14:28:22.738,-0.061925
,,,2022-11-15 14:28:23.238,-0.107113
,,,2022-11-15 14:28:23.737,-0.056904
,,,2022-11-15 14:28:24.238,-0.082008
,,,2022-11-15 14:28:24.737,-0.076987
,,,2022-11-15 14:28:25.238,-0.078661
,,,2022-11-15 14:28:25.737,-0.113808
,,,2022-11-15 14:28:26.237,-0.087029
,,,2022-11-15 14:28:26.738,-0.083682
,,,2022-11-15 14:28:27.236,-0.070293
,,,2022-11-15 14:28:27.737,-0.105439
,,,2022-11-15 14:28:28.238,-0.068619
,,,2022-11-15 14:28:28.738,-0.078661
,,,2022-11-15 14:28:29.237,-0.097071
,,,2022-11-15 14:28:29.737,-0.083682
,,,2022-11-15 14:28:30.237,-0.068619
,,,2022-11-15 14:28:30.738,-0.060251
,,,2022-11-15 14:28:31.238,-0.085356
,,,2022-11-15 14:28:31.738,-0.076987
,,,2022-11-15 14:28:32.237,-0.008368
,,,2022-11-15 14:28:32.737,-0.058577
,,,2022-11-15 14:28:33.236,-0.080335
,,,2022-11-15 14:28:33.737,-0.105439
,,,2022-11-15 14:28:34.238,-0.07364
,,,2022-11-15 14:28:34.738,-0.063598
,,,2022-11-15 14:28:35.238,-0.05523
,,,2022-11-15 14:28:35.738,-0.063598
,,,2022-11-15 14:28:36.238,-0.061925
,,,2022-11-15 14:28:36.737,-0.093724
,,,2022-11-15 14:28:37.237,-0.065272
,,,2022-11-15 14:28:37.738,-0.068619
,,,2022-11-15 14:28:38.238,-0.061925
,,,2022-11-15 14:28:38.737,-0.068619
,,,2022-11-15 14:28:39.237,-0.082008
,,,2022-11-15 14:28:39.736,-0.076987
,,,2022-11-15 14:28:40.237,-0.05523
,,,2022-11-15 14:28:40.737,-0.05523
,,,2022-11-15 14:28:41.236,-0.068619
